588 300
Natural 0.102724865 0.16277 0.19825312 0.23823132 0.059588935 -0.36036792 0.34015614 -0.19407454 -0.15900026 -0.27853453 -0.044094373 0.035776887 -0.12777856 -0.13292034 0.025410613 -0.07246035 0.39136013 0.1201596 0.016637005 0.19387312 0.054054417 0.042816572 0.3411281 -0.09676877 0.16360028 0.13056916 0.12753177 -0.40569565 0.310615 0.09984713 -0.3094474 0.2580793 0.3316167 -0.1479267 -0.11251512 -0.20442802 -0.15321635 -0.0878827 -0.3132181 0.114038154 -0.50601494 0.33415276 -0.0820941 0.25945422 -0.42735386 -0.45085403 0.41869068 0.21550913 0.17812918 -0.1333579 -0.0041954243 -0.34116444 0.051787432 0.5220699 0.26404163 0.4077476 -0.089657016 -0.0054028574 0.10739734 0.24343988 0.31517804 0.14614585 -0.35896233 0.26713833 0.009718518 0.21099196 -0.0032959098 0.21020032 0.25884327 0.08167164 0.23379147 0.50185364 -0.21536276 0.23869625 -0.39469704 -0.21156915 -0.120077305 -0.009613874 0.2552094 0.3370918 -0.4153231 -0.30502343 -0.038450137 0.024099879 0.4516899 -0.24317598 0.19534962 -0.24546158 -0.25032422 0.37589857 0.10593818 0.34840634 0.34090197 -0.014269903 0.22862618 0.5300796 0.19954269 -0.13571978 -0.20755297 -0.23788582 0.038316566 -0.40632623 0.035095315 0.1637566 0.27198213 -0.23880169 0.17083426 0.065675296 -0.1315223 0.19308846 -0.101067886 0.1597718 -0.27397746 -0.22352669 0.40730265 0.38993984 -0.23072822 0.3852776 -0.0765035 0.2478828 0.028320787 0.21042632 0.31384838 -0.29737782 -0.028554888 0.084214576 -0.083630644 -0.28861335 -0.088014245 -0.21663755 -0.3914906 -0.20755902 -0.085931055 0.040907018 -0.12217719 -0.10281869 0.10681542 -0.08897544 -0.12722655 -0.39405113 -0.30955702 0.16767731 -0.27672035 0.0052779354 -0.32344466 -0.28510934 0.33453238 -0.20322062 -0.283685 -0.21455757 -0.28193167 -0.3362468 -0.37653667 0.21822397 0.14485276 0.029075446 -0.46290585 0.13561562 -0.051495764 -0.22912693 -0.19427638 0.22263542 -0.3359265 0.095399655 -0.21082844 -0.32903007 -0.24854054 -0.11125616 0.15360159 0.4557847 0.12005071 -0.15543306 -0.24471198 0.31001583 -0.34424114 0.11680251 -0.028766999 -0.01335503 -0.20847814 -0.060749028 0.23069197 -0.16757473 0.29712665 -0.14730975 0.03446887 -0.03892706 0.12911732 -0.39045298 -0.22373898 -0.14389518 0.20709014 0.012942136 0.3620418 0.30881703 -0.08059461 -0.31820345 -0.21744598 -0.1559207 0.27357578 -0.014362647 0.22554308 0.2447801 0.18973382 0.3275107 -0.08805056 0.3250018 0.03625446 -0.17062002 0.38186064 -0.1402074 -0.19475026 0.13948214 0.015827104 -0.27699322 -0.0876572 0.08856889 -0.5146131 0.18728568 0.014455466 0.16850781 0.12872429 -0.38609123 0.22244121 0.31875774 0.015547286 0.49542764 -0.22763659 -0.54703605 0.14887388 0.2423884 -0.005114091 -0.015056514 -0.37892684 -0.37932462 0.33955657 -0.20004708 0.2549902 -0.36397797 0.52372634 0.18406966 0.41266677 0.12993756 -0.4662529 -0.22874373 -0.033787612 -0.491192 -0.27809626 -0.2870391 -0.19278929 -0.17698942 -0.24411082 0.15368839 0.43213707 0.31727332 -0.041883808 -0.2715332 0.08911388 0.1732884 0.08081446 -0.16809024 0.16212395 -0.004775062 -0.19845365 0.11287237 -0.014530128 0.08258749 0.123281874 0.014501986 0.21391411 0.24310258 -0.06181309 -0.18889983 0.2821845 -0.19345984 0.44329256 -0.32213053 -0.17153178 0.15565392 0.085936084 -0.09688448 -0.23475695 -0.14676596 -0.3612613 -0.09112095 -0.39198545 0.2791117 0.06092053 -0.06368321 0.2309651 0.24066527 0.3653184 -0.22447889 -0.24338274 -0.07588322 0.10432246 -0.2519948 -0.20002323 0.081505924 0.007804823 0.19286479
language 0.289753 0.052493334 -0.26824743 0.27468032 -0.06896468 -0.16112956 0.2074105 0.17223686 -0.22352207 -0.12595008 0.004902126 0.25309926 -0.26360765 0.03502169 -0.24221262 -0.269077 0.08905421 0.113604926 0.26963633 0.210764 -0.3325946 -0.23047559 0.26571515 -0.21433656 -0.048019595 0.0028710673 -0.11821128 -0.11189048 0.14029773 0.08181911 -0.19408093 0.37031588 0.13727376 -0.07863735 -0.07743066 -0.024132265 0.14611973 -0.22400671 0.3947361 -0.059492428 -0.2266634 -0.057208218 -0.20266905 -0.08432765 0.018415654 -0.12044943 -0.061656862 0.3583313 -0.16568625 -0.2765318 -0.11815458 0.2774008 0.08302185 0.23796193 -0.21273871 0.03567467 -0.17056909 0.11019024 0.00564817 0.1830684 0.29817966 -0.10150242 0.0314576 -0.31928277 0.0028002684 -0.06627912 -0.010182635 0.052766055 0.03733082 0.020845346 -0.09613276 0.18669972 0.10991809 0.21357799 0.28554928 -0.33898044 0.051672943 -0.0064756204 -0.4267284 -0.04236583 0.057458 -0.34597278 0.15492114 0.15244804 0.39407828 0.024438197 -0.5323509 0.011441423 0.057602827 0.021208167 -0.026782148 -0.07707 0.12599303 0.27346304 -0.09946973 0.08126337 -0.13736539 0.22427379 -0.096959084 0.12690526 0.121086136 -0.052311722 0.10527956 -0.32157052 -0.067449376 -0.12091808 0.18114355 -0.3046247 0.06478639 0.069931254 -0.13722944 -0.23809327 0.025070786 -0.10492873 0.14419848 0.22527325 -0.041089393 0.1177745 0.3758152 0.35238338 0.24933608 0.2534947 0.027741574 -0.022152022 0.044002373 -0.03786958 -0.06380149 -0.12975375 -0.23525757 -0.27427128 -0.18398845 0.07868306 0.22779082 -0.13327873 0.041382793 0.30388585 0.1129117 -0.15452051 -0.4418695 -0.10806209 -0.083060555 0.24731639 -0.045737725 0.12945129 -0.07852193 -0.18213846 0.17287262 -0.119728535 -0.050401755 -0.1604361 0.062847614 -0.28443858 -0.16403723 0.16930792 0.104409665 -0.13800873 -0.23610914 0.35205594 -0.067674935 -0.29943484 -0.032812107 -0.12614675 -0.11904516 0.15848221 -0.08471448 -0.18436977 -0.2528768 0.20977469 0.30160412 0.3053981 -0.25992298 0.07340059 0.009854267 -0.11006704 0.00824311 -0.14793162 0.16215569 0.14685567 -0.16319658 0.012667641 0.22234343 0.25731683 0.15848719 -0.06982052 0.033914 0.033016432 0.21836467 -0.05730143 0.08378373 0.07257692 0.06391074 0.09818299 -0.066520564 0.09561658 -0.22406827 0.13820705 0.07943439 -0.16653422 0.05705121 0.2220773 0.11933329 -0.20799327 0.2651773 0.17024645 -0.110271476 0.06392504 0.26787367 0.03883685 -0.2185736 -0.02048794 0.12754254 -0.09531773 -0.28426543 -0.097701654 -0.08638497 0.18565848 0.01991983 0.16033545 0.00984749 0.21622624 0.062841564 -0.07979663 0.28886667 -0.08791101 0.09171077 -0.057975598 -0.11031356 -0.24180402 0.051222716 -0.12242769 -0.061854918 -0.29834157 -0.22332406 0.21651499 0.087828636 0.27490705 0.19244912 -0.2908608 0.15517193 0.20129934 0.48928463 -0.06257768 -0.06943546 0.10146523 0.32525438 -0.23108631 -0.28574133 -0.21622524 -0.03187812 0.07305479 -0.43799353 0.15841225 0.108307496 -0.10340936 -0.29622233 -0.18157408 0.02179619 0.010245126 0.028870212 0.315575 0.6564097 -0.1502403 0.06551045 0.35835516 -0.019215317 0.2631293 0.20682868 -0.05635245 0.017519169 0.07553673 -0.21497831 -0.07010993 0.016905978 0.36441156 -0.046728954 0.046963543 -0.06135704 -0.0032457393 -0.052754365 0.118471384 -0.19372314 -0.1736519 0.14037745 -0.12743191 -0.028122772 0.084193245 -0.049998756 -0.017014356 0.08028246 -0.2236573 0.01837487 0.030592356 0.014670282 0.17297094 0.13260941 0.0326535 -0.2687178 -0.22636347 -0.18869737 0.163214
processing 0.10073314 -0.00495299 0.16463688 0.13807268 -0.09480982 -0.18380821 0.10873147 -0.27153188 0.012056755 -0.27383637 0.11504823 -0.03325949 -0.20436463 -0.16250572 0.10573493 -0.088239565 0.3741719 0.22649933 0.083485514 0.22667356 0.07151911 0.25032777 0.20104781 0.041313283 0.12809047 0.14203942 -0.060466617 -0.36622456 0.21916902 0.13642818 -0.18748815 0.039368007 0.3254135 -0.12452089 -0.08863611 -0.14044426 0.0702257 -0.15321958 -0.15132414 0.02727193 -0.39633322 0.25756115 -0.037878115 0.26502222 -0.27292246 -0.4350665 0.25553828 0.12979366 -0.01576647 -0.39016986 0.22102205 -0.32436308 0.1371382 0.41292432 0.06676115 0.2840722 -0.20159544 -0.0670831 0.14781916 0.21137491 0.29077855 0.18979928 -0.43456918 0.18278159 0.029568585 0.16483165 -0.038493432 0.23864062 0.01694244 -0.04669467 0.020671898 0.35628685 -0.23523268 0.1984577 -0.29169384 -0.08990883 -0.12603955 -0.11027444 0.34472096 0.24521145 -0.10966047 -0.42943114 0.010688974 0.098918356 0.31888273 -0.29211944 -0.13141392 -0.21148597 -0.23272255 0.2342677 0.00067040615 0.30147097 0.30849695 0.054942463 0.1478634 0.32839018 0.19122858 0.006140365 -0.20875731 -0.074531615 0.076693155 -0.2931425 0.11504368 0.1947952 0.27931717 -0.2517291 0.106393576 0.076911815 0.012356259 0.21879382 0.07853509 0.042761315 -0.2244057 0.04496154 0.331409 0.46729854 -0.22676955 0.35813054 0.090139255 0.24637567 0.061831787 0.20424464 0.21664149 -0.19052841 0.01721213 0.02756528 -0.015562502 -0.26830253 -0.11887643 -0.17690387 -0.35327214 -0.18401292 0.16490717 -0.009293904 0.021563984 -0.09459296 0.33470666 -0.008045837 -0.14187616 -0.3417313 -0.32823366 0.2607476 -0.29529405 0.3088737 -0.14141513 -0.18838201 0.29446498 -0.311073 -0.038605515 -0.20195428 -0.087053955 -0.3135239 -0.15719204 0.120137826 0.19362102 -0.08024051 -0.26084295 0.19882843 -0.25363457 -0.007480953 0.107705474 0.2415124 -0.17623119 -0.041807283 -0.029959148 -0.30944714 -0.18577957 0.026565464 0.09715729 0.3980244 0.032986112 -0.08941459 -0.24897662 0.15675414 -0.16537729 0.08037382 -0.029225022 -0.037870277 -0.13491456 -0.011278332 0.23850578 0.09809274 -0.07227563 -0.11558279 0.016423184 0.1031794 0.3305676 -0.34225312 -0.14831854 -0.066448145 0.22702982 0.0029580903 0.2989567 0.4194076 0.13599533 -0.07878242 -0.116069034 -0.24472517 0.24418479 0.038222194 0.2147551 0.34523642 0.20760797 0.17895159 0.035669606 0.22530764 0.08516583 -0.1174579 0.42876112 -0.228089 0.26195648 0.020464547 0.106228694 -0.20256923 -0.04595594 0.16928479 -0.34995395 -0.020374537 -0.097508885 0.26227012 0.20151934 -0.3080585 0.23623972 0.034423053 0.043531563 0.2854556 -0.2936197 -0.42687878 0.31827417 0.23000683 -0.057186272 0.16394207 -0.3236888 -0.33921757 0.37088686 0.06859135 0.151443 -0.2047843 0.4074946 0.25131124 0.41847157 -0.070872016 -0.3788264 -0.23106162 -0.17829111 -0.31234917 -0.2187675 -0.309028 -0.27808085 0.058545284 -0.16023879 0.20343699 0.318736 0.1987298 -0.009257307 -0.14267105 -0.024474323 0.06835335 0.0046928613 -0.13094766 0.08707392 -0.18178758 -0.10775042 0.13589123 -0.15833469 0.112293184 0.14663209 0.17987283 0.107363686 0.32836914 -0.21394293 -0.0012945448 0.3787626 -0.14531446 0.35373038 -0.31577995 -0.3035295 0.09106102 -0.07064874 0.05107388 -0.17192619 -0.018100025 -0.30671886 -0.2552102 -0.16804694 0.36492738 -0.068929635 -0.1697518 0.070905104 0.14218223 0.121682554 -0.17229451 -0.26680577 -0.060942803 -0.07523957 -0.18386692 -0.38749853 -0.20292243 -0.04318497 0.36283755
<eos> 0.03632549 -0.0039018064 -0.13281874 0.4326534 0.10467068 -0.03601258 0.1645005 -0.2688886 0.45785284 0.0075268033 -0.03973431 0.18892121 0.23701541 0.09418636 0.0048507396 0.2963661 -0.07696917 0.20918596 -0.12598929 -0.00031566716 -0.15806104 0.009196292 -0.18659161 0.056616124 -0.19206955 -0.35589778 0.024724407 -0.32107183 0.018184738 -0.41222012 -0.02003185 -0.61779094 -0.1868841 -0.16640063 0.09362772 -0.041104138 0.64605343 0.08131105 0.4520154 0.38135064 -0.35719773 0.23161134 -0.12977475 0.47335893 -0.1025304 0.10354848 0.2999412 0.028880397 -0.09728403 0.2508003 -0.2128638 0.4823512 -0.012982578 0.17687592 -0.4479608 0.4032869 -0.048205145 0.11864885 0.061533842 0.37737867 -0.00092249917 0.11904408 -0.3690141 -0.59643877 0.40278307 0.13350241 0.34531578 -0.19859833 -0.24048337 0.27475846 0.2433556 -0.2321934 0.046757933 -0.0475528 -0.07173542 -0.25135466 -0.32311296 0.0829613 -0.37007332 0.058049068 -0.38630965 -0.39564052 -0.10689654 -0.1831361 0.10586194 -0.19654354 0.06986807 -0.15904182 0.09590908 0.56296104 0.16426028 -0.07584793 -0.68679416 -0.4044042 0.0785614 -0.1508783 0.21062833 0.63606685 0.114628635 0.25806037 0.18260907 -0.34768596 0.28710446 0.037349477 0.10882047 -0.16919197 -0.12365533 0.11551038 0.33746552 0.019077254 0.4298627 -0.16899331 0.45375422 -0.6214836 -0.112033054 -0.0693615 0.016287347 0.2399374 0.098754086 -0.5042465 0.17952117 -0.0002598762 0.22680436 -0.1504222 0.2242897 -0.33939317 -0.2658946 0.4163486 -0.020910643 -0.0022352994 0.3380453 0.0021919894 -0.059451137 -0.26277784 0.098542035 0.497367 0.19013341 -0.018686185 -0.47848722 -0.009897578 -0.19070794 0.042570394 -0.23363265 -0.016555678 -0.16088441 0.20040007 0.0023654539 -0.37759417 -0.0013000515 0.35536602 -0.19920523 0.2430089 -0.037842456 0.27323848 0.18746984 -0.39593726 -0.31691334 -0.28861994 0.5290591 0.10805456 0.011159706 0.09736018 -0.02994782 -0.011543489 -0.28733915 0.18215834 0.17997178 0.09395635 0.1374553 -0.031093977 -0.38660634 0.32025433 0.50246435 0.2429219 -0.30282634 0.0046906476 -0.08573445 -0.14675446 -0.2170776 -0.28852355 -0.26087382 -0.20158789 0.028883096 -0.036885668 0.2669988 0.29247767 -0.08251886 0.17826392 -0.02947883 -0.1227229 -0.25697553 0.36205164 -0.5999778 -0.18317078 -0.21395566 -0.048906934 0.13324468 0.32256413 0.18955827 -0.17109911 -0.0922878 -0.5982266 0.5325285 -0.053257577 0.100567736 0.23729232 -0.11044883 -0.7824252 -0.05184885 0.021447077 0.07693564 0.5742583 -0.26843795 -0.049527653 -0.12326362 -0.18515645 -0.03802547 0.31375664 0.08385371 -0.06621227 0.17931482 -0.054387517 0.30477774 -0.36512727 -0.22384043 0.09313722 -0.29778793 0.22815746 -0.08689924 -0.50796145 0.3390262 0.113458835 -0.007718275 -0.14642237 0.037262566 0.05173882 -0.021620616 0.1342251 -0.12466334 -0.15845281 -0.25256243 -0.25689235 0.35286677 -0.037400734 -0.018853039 -0.28702742 -0.16135827 0.3663805 0.27199027 -0.19750126 -0.22441243 0.036498316 0.21204577 -0.29876584 0.12452364 0.13710764 -0.20346986 -0.08914392 0.2528106 0.42253593 -0.4177518 -0.2323089 0.009628808 -0.01723319 -0.20184204 -0.24678445 -0.030920357 0.04902847 0.45111555 0.15401292 -0.062047128 0.1174614 0.079731315 -0.13719499 0.1606248 -0.23349717 0.24568814 0.14919473 -0.16871475 0.0025413914 -0.44943866 -0.45493168 0.02017336 0.3434015 -0.105764955 0.07326974 0.28250855 -0.10198361 0.07143916 -0.005617758 0.42323986 -0.38737532 -0.32156125 0.10781594 0.015856637 -0.0144003425 -0.58296055 -0.04534752 -0.037916005 -0.05699297
From 0.10439668 0.010419169 0.06977961 0.12848052 0.07532491 -0.18365222 0.014211003 -0.31338808 0.025032153 -0.12009511 -0.20891605 -0.28134453 -0.13086945 -0.19356559 0.21196878 0.31805333 0.18635815 0.022765635 0.17483419 0.18327284 0.22164047 0.22434242 -0.07932057 -0.06691356 -0.12155215 -0.09368583 0.012095657 -0.15465005 0.23898438 0.26601455 -0.23067506 -0.31634438 0.061795954 -0.20675698 0.25438893 -0.21272889 0.024724303 -0.3025174 -0.15439837 -0.028455365 -0.17500393 0.09727283 0.30074215 0.20446089 -0.20387791 -0.22677313 0.20589049 0.07365846 -0.21897084 -0.16932389 0.2690419 -0.22046185 0.12887892 0.1900217 0.27807742 0.27135637 -0.2496884 -0.12338263 0.18697655 0.2218502 0.2193876 0.22889964 -0.2862634 -0.16446522 0.005688437 -0.18984134 0.10636909 -0.2189793 0.09576863 -0.24199742 0.17156228 0.19899787 -0.29249248 0.2251279 -0.30396336 -0.16550381 -0.13946319 -0.19761567 0.24435425 0.08736208 -0.06512492 -0.046966456 -0.101021476 0.17544326 0.22182524 -0.19107658 0.2343085 -0.23814276 -0.1265574 0.18922083 -0.06880275 0.28662807 0.013891326 -0.20922112 -0.06877419 0.25534856 0.17371708 0.25843692 0.0032820087 0.37635517 0.17799436 -0.13897492 0.12547135 -0.33156997 0.016670829 -0.05897287 -0.17520227 0.29190117 0.01083825 0.1046198 0.13823067 -0.05696325 -0.10985398 -0.028392801 0.1481086 0.15512218 -0.08722439 0.12578222 -0.35936022 0.121049024 0.07254694 -0.07508147 0.16583344 -0.14578572 0.057724178 0.07610196 0.35232866 -0.18072037 -0.21913762 -0.26357782 -0.21744838 -0.12466109 0.18135135 0.13370779 0.12505503 0.18281764 0.1673095 0.029683689 -0.08701853 -0.051517326 -0.08372543 0.14272003 -0.21764854 0.24341723 0.0038784451 0.12888941 -0.13124987 -0.17460412 -0.14920807 0.13398069 -0.32086176 -0.29237252 -0.20125501 0.13218985 0.112066105 -0.2748115 -0.21790232 0.21208054 0.09437844 -0.20013516 -0.21929799 0.046602763 -0.00083611417 -0.21525808 -0.11084095 -0.17709936 -0.12054339 0.31449068 -0.261193 0.1837032 -0.22440334 0.12285798 -0.2086594 -0.02602117 -0.16747557 0.179881 -0.28523386 -0.25817016 -0.2742854 -0.03511845 0.08956854 -0.0945567 -0.14748007 0.1573701 -0.11711784 -0.11958231 0.15208893 0.030724162 -0.051929254 0.084241696 -0.07080688 -0.019614128 0.22773089 0.082284674 -0.16251454 -0.24712063 -0.079642884 -0.09762016 -0.10388841 0.21826114 0.00010333897 0.17902511 0.15906847 0.21108864 0.20657505 0.061360866 0.2676205 -0.10733971 0.18943451 -0.22348689 0.06892109 0.24597667 0.091496356 -0.14074896 -0.22575292 0.26300907 -0.2034616 -0.12966445 -0.21215118 0.21449246 -0.051371623 -0.18386793 0.23748216 0.18102603 -0.28725305 0.27350008 -0.08845497 -0.290878 0.15172464 0.07883144 -0.2917916 -0.15724753 -0.089996494 -0.05520564 0.22629085 0.23067595 0.24466932 -0.25719884 0.23750338 0.19151987 0.13249764 -0.22423184 -0.31038228 -0.28747138 -0.18149592 -0.16867228 -0.18737073 -0.124115475 -0.23331329 -0.077153064 0.042404912 -0.06942053 0.27669957 0.3289304 0.27156624 -0.31562492 0.21997318 0.17265338 -0.110332824 -0.2670999 0.011064273 -0.19803154 0.20294814 -0.046680093 -0.30974004 0.2624003 0.1809618 0.010214967 0.2270629 0.07341101 -0.16893946 -0.06693811 0.2763649 -0.19273454 0.09196244 -0.09646001 0.18312502 0.17367566 -0.24933468 -0.100725636 -0.09412042 0.016698327 -0.20388241 -0.27193615 -0.11482762 0.14939424 -0.13397083 -0.005969154 0.024190988 0.13148662 0.12891982 -0.0051370007 -0.006644488 -0.004801003 0.09321984 0.004437421 -0.14757648 -0.18175223 0.26918373 0.1767301
Wikipedia, -0.020724641 0.13093534 0.07360769 0.09792918 0.050903313 -0.1942004 -0.13090993 -0.23980203 -0.0052149147 0.0014178664 -0.249752 -0.16612044 -0.062944226 -0.313665 0.21600525 0.27780202 0.18608183 -0.10450001 0.23151144 0.2711177 0.23096587 0.21029451 0.055150848 -0.22288683 -0.006898137 -0.0412936 0.17727225 -0.11118608 0.32053414 0.26583707 -0.2653237 -0.22238691 0.011630527 -0.21980868 0.2794182 -0.2620265 0.0012649026 -0.2997068 -0.18090564 -0.12774226 -0.14020725 0.23349883 0.25594282 0.2355261 -0.2482036 -0.31552234 0.20475473 0.024400165 -0.33982795 -0.096940674 0.2737449 -0.18564712 0.14302768 0.19540314 0.2820747 0.2675414 -0.30144674 -0.057353236 0.24578714 0.25645852 0.19891535 0.20046413 -0.31391045 -0.13389082 0.085104264 -0.18439315 0.038750242 -0.23548804 -0.020711502 -0.25382492 0.12631798 0.2672091 -0.26905268 0.2492902 -0.24651727 -0.088192664 -0.23165195 -0.20384412 0.22253245 0.015008338 -0.008690616 0.068876706 -0.14772323 0.10163318 0.22045949 -0.27612922 0.24853821 -0.2519641 -0.09111341 0.19673717 -0.16309744 0.29506642 -0.12781247 -0.051695485 -0.1658792 0.32615545 0.1467071 0.2885594 0.14241233 0.29403695 0.2347442 -0.069028415 0.0797609 -0.32245567 0.13566402 0.050682943 -0.18896173 0.26324043 0.01839207 0.03650368 -0.035719916 -0.17543961 -0.14585286 0.066537686 0.1176738 0.16994731 -0.12505409 0.06644612 -0.22700962 0.18188863 0.17454283 -0.16794926 0.18518482 -0.186862 -0.05142628 0.011896322 0.34440833 -0.18302235 -0.2108209 -0.3015448 -0.2855504 -0.2186683 0.17543818 0.1761045 0.21368472 0.16068085 0.24090332 -0.109532565 -0.041128233 0.07330585 0.026942128 0.06876216 -0.23298348 0.32744232 0.117985964 0.22670859 -0.16228583 -0.094616055 -0.12752111 0.212923 -0.3594295 -0.3702084 -0.28172022 0.047825415 0.18832073 -0.3451488 -0.24804455 0.2712711 -0.08879272 -0.2907384 -0.2853485 0.1407946 0.103490844 -0.21189521 -0.022054251 -0.16499148 -0.1187832 0.3085557 -0.19738546 0.2092513 -0.2885695 0.20777218 -0.080720924 -0.22437935 -0.13908406 0.14963083 -0.25643048 -0.20418736 -0.25208998 0.016746359 0.084248945 -0.18806642 -0.1712149 0.18476474 -0.17299056 -0.19220477 0.19719613 -0.14750832 -0.10534763 0.22738405 -0.14112782 -0.043203045 0.18551992 0.18699616 -0.08319323 -0.2890971 -0.14903773 -0.2456742 -0.22196355 0.23584452 -0.08480305 0.2216704 0.1680881 0.23897469 0.18823645 -0.075721316 0.29385927 0.017770633 0.113666385 -0.23989634 0.066067316 0.25648913 0.1325592 -0.128943 -0.22645265 0.3051422 -0.21905352 -0.20977484 -0.23218016 0.2893666 -0.125953 -0.1423027 0.2729142 0.20265758 -0.17205858 0.30980974 -0.049792316 -0.34680533 0.23808502 0.090066314 -0.22434974 -0.2575288 -0.0028500308 -0.113723695 0.25404987 0.3072462 0.28801033 -0.25553444 0.2989004 0.17502323 0.062418967 -0.28340882 -0.28442135 -0.24990565 -0.076892905 -0.1395065 -0.1361916 0.006526711 -0.2636164 -0.00869414 0.101032086 -0.15520136 0.2987095 0.32843006 0.24125491 -0.32370907 0.23852825 0.26296982 -0.1857684 -0.26251373 -0.07729737 -0.24823102 0.20154575 -0.077052034 -0.30666667 0.28527698 0.14566298 -0.0026846959 0.33622435 -0.035865523 -0.13205507 0.036415655 0.24551663 -0.23093902 -0.020076185 -0.0023953635 0.18084358 0.13967319 -0.32897297 -0.019511405 -0.022353832 0.08845449 -0.23804945 -0.31967798 -0.0764099 0.13767838 0.005458512 0.15137826 0.032303575 0.17158012 0.12190953 0.077347085 0.14089172 -0.09417048 -0.034161925 0.1261493 0.019077394 -0.2870252 0.19934075 0.15708831
the 0.06810205 -0.0005127194 -0.23085028 -0.18384473 -0.20678636 0.507867 -0.260064 0.26497868 0.09632498 -0.29356343 -0.09422997 -0.14324854 -0.2040528 0.3355805 -0.15187636 -0.026159793 -0.29373896 0.2625212 -0.17007244 0.24164554 0.019248623 0.06462051 -0.28920022 -0.18488213 -0.33684504 -0.36854967 -0.14520197 0.23561674 -0.13491002 -0.14961156 -0.15711498 -0.3302613 -0.1972875 0.0028306695 -0.0073268176 0.13637023 -0.02176336 -0.23242201 0.17362481 0.043229308 0.28833088 0.01283991 0.29443178 -0.26164138 0.4067015 0.21887343 -0.17408906 -0.13692185 -0.25137594 0.17618708 0.1447714 0.019684339 -0.14838226 -0.18448308 -0.14987022 0.025113663 0.33046088 -0.28471586 -0.35314658 -0.038092326 0.15506244 -0.29704055 0.29098612 -0.29341376 -0.3822792 -0.0730015 -0.4279251 -0.0078064906 0.09432526 -0.26970494 0.11351772 -0.26939997 0.14054461 0.23267017 -0.064913124 0.24361606 -0.26368397 -0.2273707 0.15451826 -0.29386663 0.19955152 0.28427094 0.13089202 0.18696797 0.21602996 -0.08590116 -0.096270144 0.060274832 0.42625517 -0.243899 -0.26493546 0.098329805 -0.34322134 0.12669839 -0.18412213 -0.39010203 -0.00787741 -0.19010922 0.013995923 0.32771307 0.10174739 0.03970564 -0.27266636 -0.32114792 0.09625976 0.24270019 -0.19607452 0.098252974 -0.23695311 0.26476246 -0.10701384 -0.17443807 0.037159648 0.23786674 -0.2478926 -0.046259213 0.17081732 -0.294216 0.13828404 0.027858142 0.19005896 -0.08879098 -0.0082337875 0.2701043 -0.25149772 -0.29834217 0.20454599 -0.25657314 -0.14229731 -0.07909568 0.20112114 -0.17207344 0.016961452 0.13202 -0.066396415 0.1647444 0.3965837 -0.21276936 0.2912699 0.042258497 0.25090218 -0.18919954 -0.1708156 0.19063437 0.14561583 0.13311614 -0.40805966 -0.26448134 -0.17357057 0.1550086 0.2215545 0.410045 0.15266353 -0.12227337 -0.27154356 -0.18242468 0.31606376 0.2047029 0.09730967 0.09336738 0.12941138 -0.42209095 0.21474834 0.43757677 0.011042893 0.077194326 -0.3504336 0.07837293 -0.15388294 -0.4692925 -0.37708136 0.2955742 -0.15447403 -0.121303715 0.11598994 0.062273413 -0.085914835 -0.057998035 -0.18805753 -0.12787953 -0.0391066 0.10811887 -0.026502684 0.08150489 -0.10367333 -0.1432385 -0.09733778 0.27971768 0.2488498 0.09021942 -0.060683757 -0.21718739 -0.086972006 -0.09472902 -0.16902947 0.4028327 0.10464687 -0.23808151 -0.186763 0.15249169 0.06718653 -0.42097518 -0.013513102 -0.095273465 0.19349062 0.07009161 0.23050739 -0.16041803 -0.23300406 0.005558691 0.09492789 -0.15567422 -0.3149714 -0.14249577 -0.24382758 0.12067081 0.24584784 -0.09171177 -0.15099393 -0.18223675 0.13825047 0.05199707 -0.17379408 -0.07704074 0.20894015 -0.40425524 0.067670844 0.23129316 0.40391764 -0.10074322 0.06645966 -0.052213 0.2572794 0.29022792 -0.0327069 0.15008068 0.028067358 0.17029752 -0.25940976 0.29353887 -0.23135073 0.081559986 -0.1990424 0.37678173 -0.09421231 0.28900555 -0.2394517 -0.13097362 -0.12590715 -0.013310226 -0.020237124 0.13364 -0.3776867 0.013832143 -0.07975554 0.09604758 0.26308364 -0.2756031 -0.15598996 -0.31862992 -0.2045133 0.17959702 -0.1978817 0.027269054 -0.20877996 0.0463546 0.38636544 -0.08289761 -0.33744866 -0.016001593 0.008310739 0.03988181 0.11657914 0.23872398 -0.21999007 0.07226999 -0.2775954 0.17307033 0.084045954 0.075815074 -0.21233775 0.22866507 0.21700723 -0.20454079 0.21498416 -0.11024969 -0.22407523 0.13782349 -0.14991161 -0.25650972 -0.29011923 0.24078573 0.056125883 -0.09274301 0.10465771 0.013228196 0.0065101325 -0.21324617 -0.13247636 0.1715885
free 0.03388012 0.041391104 0.2218891 0.14891373 -0.0128492145 -0.29601282 -0.0140978675 -0.19739501 -0.14756182 -0.13559385 -0.20735529 -0.09587888 -0.13481084 -0.23578149 0.12382944 0.0562257 0.25031915 0.07224556 0.119700454 0.33458352 0.1969254 0.17447622 0.14472142 -0.16316696 0.07407359 -0.025564807 0.12863609 -0.18398073 0.34595883 0.22512859 -0.31057468 -0.05295717 0.15987803 -0.16779323 0.034116723 -0.13941418 0.06215009 -0.27424413 -0.24129316 -0.023205208 -0.2340421 0.33812365 0.1084058 0.31382442 -0.28897846 -0.358697 0.19467819 0.20702559 -0.34784624 -0.16864325 0.2705182 -0.28300363 0.20166445 0.24335633 0.32299593 0.29669493 -0.2432844 -0.047857624 0.14832568 0.22240584 0.1883459 0.13313851 -0.33030945 -0.027977671 0.016201915 -0.10597867 -0.023197535 -0.080764085 0.069159225 -0.20780522 0.100412324 0.24915053 -0.2501516 0.25779372 -0.19951345 -0.17794806 -0.30122554 -0.17629172 0.23419163 0.13255249 -0.03462452 -0.10197998 -0.0940675 0.22409107 0.26309326 -0.34395793 0.10982169 -0.26264778 0.016787846 0.16602147 -0.16629472 0.29822972 0.1399627 0.07534065 -0.0036974838 0.33745173 0.14567567 0.30002847 0.049198907 0.1613198 0.17388695 -0.17712168 -0.000441279 -0.27864558 0.23179622 -0.046113797 -0.06711787 0.1548433 0.03881678 0.16347054 0.02417471 -0.13445042 -0.17406592 -0.019709622 0.21709071 0.25150773 -0.09541056 0.17178595 -0.14327174 0.24142288 0.09856683 -0.0077195335 0.14890376 -0.1759294 -0.091322586 0.04215203 0.33944285 -0.3055387 -0.1659483 -0.3345169 -0.34822103 -0.22995307 0.09601331 0.1277986 0.16143449 0.118185006 0.29154012 -0.07314933 -0.16344534 -0.030694515 -0.14812157 0.07250278 -0.26115027 0.32420343 0.029627053 0.07768672 0.04599978 -0.23610471 -0.18091215 0.1231878 -0.33045393 -0.3645082 -0.32081664 0.10528176 0.12650526 -0.3371391 -0.22442026 0.23500538 -0.07156875 -0.31293273 -0.29306823 0.15266544 0.016649911 -0.11374173 -0.11579043 -0.25530514 -0.19327773 0.20388706 -0.10517754 0.32568735 -0.23466346 0.115288064 -0.17695183 -0.23634572 -0.12798522 0.05829985 -0.060760822 -0.096667215 -0.14545934 -0.067571305 0.18272412 -0.2262739 -0.23201527 0.053168915 -0.15326686 -0.14783452 0.33158243 -0.17570806 -0.07845728 0.20952794 -0.06150185 -0.027621878 0.24638544 0.30861318 -0.07954684 -0.20995626 -0.1451787 -0.3543678 -0.069199346 0.20202865 0.056290127 0.27296275 0.28631756 0.27643996 0.10073925 -0.03642009 0.28533652 -0.083513804 0.26867315 -0.24884151 0.21349758 0.23373556 -0.052473992 -0.041299008 -0.23668815 0.24434441 -0.21683243 -0.14927872 -0.24860911 0.22440936 -0.017631171 -0.21691899 0.23404677 0.21959272 -0.10305879 0.3191584 -0.23426461 -0.35716796 0.26172507 0.088346854 -0.14691599 -0.28034604 -0.08650812 -0.20659336 0.27310637 0.30269098 0.20475715 -0.2695274 0.3084624 0.25866035 0.21924281 -0.1333452 -0.32170293 -0.2283623 -0.065541945 -0.15439884 -0.20093444 -0.17314555 -0.2634434 -0.06925438 0.0065565608 -0.0663825 0.2399367 0.31680486 0.07042968 -0.346258 0.26434895 0.28855613 -0.16923954 -0.19099285 0.07908675 -0.18814974 0.07356292 0.022560889 -0.1926609 0.19775298 0.24381885 0.033459168 0.3591712 0.08102144 -0.19435923 -0.08431663 0.28371984 -0.15045314 0.09590999 -0.12855987 -0.05917536 0.14002159 -0.34846237 -0.119937025 -0.071725376 -0.0067592324 -0.23735401 -0.33800802 -0.17966299 0.23583879 -0.026663756 0.0770978 0.15996055 0.24950072 0.19737442 0.05730111 0.033812713 -0.07458777 0.075531505 -0.008087087 -0.11894198 -0.37958837 0.1490733 0.1671048
encyclopedia 0.10242646 0.12282143 0.15150881 0.2038174 0.035873085 -0.2568413 0.123343706 -0.15580164 -0.2044611 -0.21356593 -0.140527 -0.0069731767 -0.12543081 -0.13306305 0.03198778 -0.0495107 0.25138074 0.21040456 0.053293552 0.33169463 0.051531073 0.1800564 0.15157165 -0.105243474 0.03690165 0.03574661 0.077465415 -0.22947319 0.31075487 0.09586083 -0.3135399 0.047515746 0.2608984 -0.13651699 -0.05778297 -0.07202407 0.14507596 -0.24842097 -0.15592667 0.122254156 -0.27610093 0.31732658 0.036119383 0.37397736 -0.23966256 -0.37830433 0.20056967 0.3119973 -0.259127 -0.17791529 0.19887273 -0.22887059 0.18624066 0.26091194 0.3273916 0.3144938 -0.15394963 -0.09603491 0.05507354 0.18312308 0.14774661 0.11698369 -0.34260687 -0.016375624 -0.06521673 -0.048928097 0.0028041466 -0.110673465 0.13410307 -0.10835932 0.15444265 0.2186696 -0.22262943 0.22056337 -0.20383298 -0.21606939 -0.29123408 -0.10582147 0.1928187 0.17519718 -0.040542193 -0.2754689 0.039179113 0.24935481 0.27811047 -0.33213213 -0.019876238 -0.24669151 -0.06733754 0.16828004 -0.082405254 0.32913432 0.21865259 0.20680925 0.16742665 0.35705146 0.10078126 0.34757486 -0.09221357 0.042282443 0.105445206 -0.2476167 0.014226833 -0.18746315 0.18414389 -0.1024203 0.030532196 0.06682368 0.012865474 0.17453921 0.08808329 -0.037673905 -0.18003567 -0.12463127 0.23980013 0.27226165 -0.09069087 0.2369763 0.055758934 0.22677866 0.06747622 0.14385426 0.12361386 -0.16605826 -0.013013842 0.0010818207 0.25518292 -0.3730012 -0.16732943 -0.30020335 -0.3715087 -0.1377083 0.035655793 0.12188796 0.07290197 0.0953263 0.30737042 -0.15761182 -0.244575 -0.14306855 -0.2251421 0.08708561 -0.26977864 0.29031172 -0.13587166 -0.041011076 0.1480522 -0.28968072 -0.22103864 -0.045081653 -0.23559567 -0.3598528 -0.32485226 0.13940996 0.09794311 -0.28014225 -0.1939442 0.18515126 0.0039966735 -0.26650387 -0.1787039 0.08813719 -0.12548997 0.021926597 -0.16282766 -0.2773355 -0.19999564 0.102336206 -0.037086748 0.3517237 -0.15046589 0.066530235 -0.25878 -0.10178891 -0.10013362 0.0060362243 0.04021447 -0.07569587 -0.08207725 -0.08076537 0.2667589 -0.06658256 -0.048110813 -0.08672 -0.041616052 0.02669843 0.37128386 -0.115755185 0.039411265 0.12263663 -0.10200656 -0.03028803 0.2390324 0.28044844 -0.06717248 -0.0974466 -0.06393039 -0.35408783 0.06643658 0.14727814 0.17656837 0.2330417 0.3504173 0.23608644 0.04953723 0.026850844 0.23062414 -0.13052407 0.33180106 -0.1886511 0.204732 0.21281168 -0.12441279 0.0012209965 -0.20354475 0.16421951 -0.2225049 0.033193998 -0.22054216 0.14148422 0.050759062 -0.24434566 0.24209943 0.12337923 -0.008159097 0.30895558 -0.27377304 -0.3616067 0.25871512 0.008599964 -0.11825966 -0.29906476 -0.09777887 -0.1884139 0.28516513 0.2613105 0.13277046 -0.28730616 0.31016418 0.2720666 0.2863795 -0.046856593 -0.3748361 -0.19528222 -0.05632721 -0.16628286 -0.24701868 -0.24764852 -0.22637425 -0.16797723 -0.16140398 0.035890993 0.17119907 0.2794458 -0.009562068 -0.3530415 0.17931788 0.2104647 -0.021855064 -0.07546076 0.21082944 -0.16258301 0.018217247 0.14307836 -0.15861534 0.13050498 0.28094372 0.01383712 0.3063367 0.1807692 -0.18516912 -0.18242161 0.35184205 -0.083556294 0.14393593 -0.20620713 -0.096652344 0.09361218 -0.33303005 -0.18401764 -0.13238841 -0.1769283 -0.17920505 -0.31595594 -0.21217802 0.25425005 0.03399892 -0.09240302 0.09958018 0.27872726 0.24088065 0.031619832 -0.14149813 -0.002759168 0.05610456 -0.16571514 -0.2561329 -0.35335952 0.08038722 0.13433516
(NLP) 0.044735555 0.07800446 -0.060527954 -0.13744836 -0.04363214 0.13788079 0.026002202 -0.18063979 0.17956533 -0.041430432 0.20524256 -0.08307305 -0.20701364 -0.024312092 0.040004294 -0.30350834 0.12680581 0.103533275 0.13591665 -0.060318377 -0.12037747 0.22715071 0.11882884 -0.009395088 -0.06690462 0.3011043 -0.09277393 -0.15499519 -0.13564064 0.038688652 -0.071627535 0.0027579751 0.028418776 -0.038741786 -0.36525172 -0.058426186 -0.16473188 0.03104149 -0.22271295 -0.055602986 -0.324752 -0.19532122 -0.25173685 -0.23181996 0.048272047 -0.28520384 0.1378653 -0.12430693 0.19465114 -0.35234162 0.13648376 -0.14121662 -0.016897043 0.2761289 -0.10752029 -0.14399035 0.15457438 0.02535683 -0.111825444 -0.16856395 0.20744064 0.18061435 -0.24887235 0.3389731 0.07231515 0.20080136 -0.10386503 0.39112195 0.1597763 0.10278532 -0.009646911 0.34210968 -0.0592088 -0.1258468 -0.26021275 0.30899054 0.20284323 0.08447246 0.17506051 -0.030898489 -0.13162293 -0.4242136 0.11524403 -0.15569477 0.10509361 0.13646291 -0.39108458 0.223579 -0.32042488 0.092976965 0.22281985 0.11685369 0.3313498 -0.04066702 0.061156508 0.06330249 -0.075578324 -0.14478247 -0.18234544 -0.12725407 -0.010491691 -0.1548696 0.09544482 0.28651804 0.27774188 -0.22994888 0.16949002 -0.055332605 0.020238955 -0.01778952 0.2644929 0.30817547 -0.34197515 0.30965263 0.2648122 0.32393682 -0.32282564 0.24648762 0.37103257 0.1323242 -0.0025992745 0.30136573 0.15316942 -0.034492098 0.029022273 0.12133575 -0.18080337 -0.27429664 -0.1414182 0.1768833 -0.27000526 -0.02629506 0.052795414 -0.09991291 -0.07213333 -0.36769494 0.070097685 0.066570304 0.2223059 -0.28999743 -0.3125544 0.31520924 -0.03838098 0.15205225 -0.08341407 -0.35384548 0.1856748 0.048382636 0.14808784 -0.38226357 0.39430514 0.00815711 0.0030836435 -0.09868353 0.22772665 0.1752401 -0.013425098 0.037651744 0.024725374 0.086946376 0.18844266 0.29427677 -0.04886777 0.11386584 0.31319213 -0.26039064 0.019870946 -0.2809175 0.15911996 0.13049968 0.39810345 -0.14144312 -0.3705535 0.09650456 -0.09844612 0.18540595 -0.06963809 -0.032256927 0.18098025 0.28088742 0.35616136 0.23421189 0.06407671 -0.19683303 -0.037286494 0.19347703 -0.011927267 -0.28064844 0.063816704 -0.3165299 0.10374516 0.114147045 0.24228778 0.32349047 0.34599394 0.14516227 0.11432704 -0.015463991 0.3550745 0.032443035 0.117581576 0.200732 -0.026743297 -0.01214004 -0.09092318 0.28140286 -0.09368633 0.11401601 0.386498 0.04788083 0.1350986 -0.17935073 0.17118134 -0.22965603 0.22066146 0.035894096 -0.31726086 0.10154227 0.12305596 0.09937933 0.035266533 -0.15511096 0.1068754 -0.02945627 0.05197738 0.050527707 -0.17372587 -0.22596876 0.13503195 0.072450295 -0.043448478 0.26661834 -0.23847024 -0.3276864 0.042769335 -0.27964172 -0.01595375 -0.05858558 0.22919175 0.019218566 0.20087673 0.2081114 -0.25801113 -0.1431217 -0.156368 -0.1791893 0.016481532 -0.23384793 -0.2192485 0.00045847922 -0.27998364 0.17527632 0.16812399 -0.17960744 -0.20559326 0.18367791 -0.22994852 -0.23551224 0.04557605 0.06857024 0.14151296 0.04245588 -0.19641913 -0.07489469 -0.09748214 0.037134804 -0.1237569 0.17992024 -0.2624938 0.17448542 -0.086958356 -0.0795456 0.27267542 0.026586872 0.15176293 -0.07766829 -0.43882057 0.13070455 0.30587342 0.16559815 -0.20535414 0.25446525 -0.20630883 0.008475618 -0.19594721 0.21691264 0.0056387726 -0.32164314 -0.041730355 -0.017097328 0.197399 -0.219016 -0.2685855 -0.051375166 -0.23773484 -0.23557645 -0.31307814 0.021058721 -0.18380058 0.2203159
is -0.18057187 0.0030957258 -0.024242291 0.010780423 -0.20284683 -0.10127704 0.15768105 -0.35038653 0.0043541105 0.15795228 0.0714046 0.057186536 -0.057711594 -0.09161222 0.053109698 0.28256178 0.008243756 -0.25612304 0.015528456 -0.07730243 0.17238058 -0.0782985 -0.24520229 0.0073165256 0.15004547 -0.06740983 -0.06705835 -0.084383614 -0.2234844 0.07877101 -0.015273974 0.03908883 0.03854713 -0.12581788 0.22484462 -0.009495223 -0.03782102 0.18766475 -0.3472758 -0.2431932 -0.19200158 0.028591793 0.03891167 0.15950434 -0.05175577 -0.01781286 0.22980717 -0.2524631 0.370129 -0.1549903 0.05529097 0.04450804 -0.08146959 0.11520631 -0.13616101 0.08958224 -0.09913537 0.08690895 0.05100328 0.24609971 0.18005823 0.07271797 0.034471247 0.19113766 0.009294722 0.3129709 0.0067727165 0.3170699 0.09437733 0.061321415 0.17498428 0.26597247 0.13708451 -0.06701205 -0.4629092 -0.3739105 0.1757325 -0.03742554 0.17773725 0.19837135 0.099326275 -0.09041274 -0.24018149 -0.08860744 0.01854093 -0.07290629 0.28280672 -0.07860899 0.049468715 0.28238735 -0.09544254 0.17550205 -0.00047128086 -0.32268995 0.015640916 -0.06669176 0.21353823 -0.14658302 -0.054484513 0.19056857 -0.13877554 0.06291767 0.032720882 0.4368063 -0.0004344068 -0.09948408 0.092329144 0.025766663 -0.12117721 -0.14242086 -0.097354166 0.17128398 -0.011645752 -0.23462434 0.032438263 0.059779596 -0.1679852 0.10986261 -0.46791467 0.088893384 0.08403831 -0.043424223 0.19901276 0.19929956 -0.06972041 0.055632714 -0.35613707 0.13042818 0.044545364 0.11245547 0.05402071 -0.0831616 -0.08485029 0.047794398 -0.14207113 0.14496273 -0.051343337 0.20081031 0.049107723 -0.27742085 -0.010496772 0.17214705 -0.08249624 -0.087867424 0.22364521 -0.0018683396 -0.1572431 0.16060415 -0.03247158 -0.1485355 -0.1552441 0.032464627 0.3417892 0.3378151 0.08815991 0.3273368 -0.19270547 -0.12274902 0.067406066 0.09464432 0.11895103 0.09795264 -0.044257116 0.12047868 -0.15969512 -0.2142336 -0.08350282 -0.110594645 -0.0019190189 -0.11022519 -0.020716349 -0.09325362 0.18977197 0.13841838 0.0096318275 0.19833714 -0.113301605 -0.17283504 -0.1302818 -0.27403948 -0.22846796 0.14227764 0.012947731 0.24657957 0.13979007 -0.055489246 -0.107238226 -0.12158289 -0.2782228 -0.35609537 0.012344144 0.13928989 0.10054509 0.012370329 -0.06612337 -0.15236989 -0.20152883 0.17708085 0.004864274 -0.087556496 -0.36938027 0.097196124 -0.19254287 -0.044132728 0.007187041 0.2969907 -0.21249838 -0.52591395 0.099851854 -0.025734276 -0.08617077 -0.017884608 -0.023135912 -0.08378716 0.10675497 -0.1513511 -0.05205246 0.08848166 0.123767115 0.12620583 0.13228698 -0.24825715 0.14898613 -0.11239912 -0.007723779 -0.0052339756 -0.07236738 0.092166536 0.054321762 0.3385128 0.13748838 0.26931858 -0.065080166 -0.108093396 0.13062623 0.20861284 0.006037103 -0.015924694 -0.06820117 0.0021823489 -0.07037366 0.09823507 -0.18584208 -0.06946168 0.0076999175 -0.16603512 -0.084009856 -0.048791245 0.09360775 0.122937396 0.011459115 0.13488296 0.040712655 -0.07018762 0.03485005 0.12758392 0.010315032 -0.09318116 -0.051288836 -0.3866169 -0.116918236 -0.091576 -0.06059796 0.036263417 -0.047130667 0.0041314512 -0.29670238 0.19995876 -0.26821512 0.16297404 -0.021764668 0.017043209 0.06372022 0.14524767 0.074606925 0.052848827 -0.19519964 0.28616288 0.12330052 -0.0530846 -0.31449518 -0.1397335 -0.18708202 0.2329691 0.110454954 0.05719724 -0.089893386 -0.010030491 -0.023615422 -0.32960153 -0.1813968 -0.4223697 -0.16069978 -0.30157393 0.004742029 0.13999434 -0.24545543 0.34106866 0.0667527 0.11722878
a 0.10758794 -0.047367368 -0.061185367 -0.112179995 -0.33377856 0.014176102 0.07900215 -0.12458495 0.049770843 -0.09157313 0.19506158 -0.12405493 -0.29795986 0.08904708 0.19865987 0.19007796 0.13867408 -0.012675014 0.19216876 -0.25493556 0.109724395 -0.037069626 -0.12726659 0.14275776 -0.09427892 -0.14130284 -0.33519483 -0.14650555 -0.19011274 -0.120911956 0.14330913 0.18122983 0.2926067 0.059224088 0.2552537 -0.013071567 -0.39135662 -0.064208604 -0.16783787 -0.21556792 -0.07535762 0.33981588 0.22704259 -0.17746168 -0.07573828 -0.055510353 0.21864766 -0.08299878 0.26745957 0.113167 0.104191355 0.21243565 -0.3360354 0.12334304 -0.1906705 0.21064456 0.24176265 -0.13367903 0.06391962 0.3575692 0.119568445 0.116607904 -0.26480478 0.3365219 -0.46113524 0.42459452 0.16999729 0.13716339 0.17383553 -0.12674123 0.28724524 0.15920256 -0.2808919 0.012166249 -0.23391134 0.12671223 0.2352507 -0.18353617 -0.066226915 0.095026545 -0.003330273 0.01309254 -0.03766646 -0.10826385 -0.084269226 0.22960374 -0.25906932 0.0887587 -0.2656566 -0.19428298 0.10876876 0.058583084 -0.17148754 -0.3767929 -0.064619854 -0.16255234 0.15004385 -0.3810809 -0.30909076 -0.24403584 -0.012376483 -0.029597975 0.09065413 0.13847622 -0.2617152 0.11648976 -0.049763467 0.121959016 -0.13197096 -0.048479326 -0.010828809 0.13029473 -0.31789607 0.29604217 0.047177672 -0.08085728 0.16304371 -0.24987103 -0.1992021 -0.26942265 0.11340761 -0.04497645 -0.1053086 0.30929476 -0.2053187 0.21881042 -0.28098643 0.050279852 0.152764 0.13650861 -0.06650625 0.13553108 -0.13043745 0.11665686 -0.1625382 -0.24181272 -0.10182546 0.1098785 0.2614997 -0.5238593 0.17780517 0.10823311 0.18116172 0.14294201 -0.102319576 0.23601763 0.21400979 0.07760151 0.072979584 -0.4049685 0.22718476 0.18432496 0.234378 0.029232655 -0.07509766 0.33375853 -0.35632154 -0.05143678 0.0036894202 0.17665 0.22606769 -0.13934277 -0.49385935 0.17758563 -0.09526338 0.02154458 0.10527176 0.14584774 0.1359548 -0.024056649 0.16620155 -0.2230112 -0.16929802 0.14451806 -0.22406156 -0.047840256 -0.107763864 -0.16619171 0.02508738 -0.08343999 -0.06791978 0.093890496 0.4034015 0.17996038 0.030289058 0.1014171 -0.07183384 0.037182555 -0.016395204 -0.071609184 0.25490463 -0.12086196 0.05275935 -0.2462493 0.11179991 -0.08054027 -0.17798026 0.051904142 -0.049495943 -0.116437405 -0.073325604 0.040375017 -0.2685553 -0.012545981 0.31933767 0.37658376 -0.076119654 -0.055210102 0.10790234 -0.36041853 0.07691612 -0.46225706 0.34738737 -0.01557116 0.18456414 0.23928425 -0.047543943 -0.251917 0.14491442 0.15411256 0.16403861 -0.16961333 -0.25993872 -0.17347978 0.1695616 -0.18459095 0.13791521 0.18499158 0.0023474055 0.21552446 -0.32348406 0.64628094 -0.013394391 0.14822944 0.25305378 -0.16958758 -0.11754361 0.08475624 -0.044878956 -0.08775301 0.18750362 0.27461156 -0.1811888 -0.177696 -0.5077536 -0.07145048 0.06533807 -0.2534071 0.15456143 0.19916004 -0.30999598 0.115226276 0.0062706927 -0.099289574 0.12560767 0.032828465 -0.040835183 -0.08472474 0.09413334 -0.15252858 -0.06044681 -0.19201371 -0.063648134 -0.15492392 -0.22840807 0.33893824 -0.042078517 0.085303254 -0.46427503 -0.033700187 -0.13405018 0.010540142 0.2697571 0.10804131 0.23104922 0.115595765 -0.14270383 0.11158318 0.29797614 -0.018691843 0.07338378 0.28650793 0.09994717 0.2082262 0.034995057 -0.07039676 -0.29568505 -0.22395624 0.17441842 -0.17769817 -0.28102246 0.086154066 -0.017710656 -0.003249824 0.3117618 0.11520978 -0.17198874 0.42495692 -0.28782353 0.0033965348
field 0.23733412 -0.22751096 -0.026633697 -0.20090334 -0.15225612 -0.017306486 -0.1853535 -0.033473182 0.13481033 -0.2113857 0.0044695023 -0.24251057 -0.38024184 -0.17556454 0.2279911 0.20227976 0.17959821 0.25971237 0.23065597 0.3123586 0.21262206 0.060946938 -0.030139765 -0.04530328 -0.16114745 -0.170958 -0.18865134 -0.07994239 0.11771126 0.13749897 -0.078500435 -0.12543356 -0.009233968 -0.20636411 0.13881364 -0.27620238 -0.02540826 -0.26839882 0.06598528 -0.24668656 -0.05375674 0.053089835 0.07600749 -0.2768701 0.007241803 -0.19381723 0.108107135 0.0034116954 -0.114276715 -0.36324608 0.0764441 -0.13833398 -0.008917952 0.18510014 -0.15986568 0.07431567 -0.2008475 0.017555868 0.20903547 0.40217736 0.48057097 0.059827767 -0.29895598 -0.12691541 0.24742834 -0.13422178 0.06564334 0.2703334 -0.0658812 -0.19942942 -0.05021403 0.30785426 -0.29554087 0.19039476 -0.15337086 0.03866401 -0.025062924 -0.29285213 0.26858416 0.040377237 -0.13323979 0.064267725 -0.16808085 0.19451047 0.32726172 -0.007865912 -0.030819368 -0.11184028 0.061824065 0.058149837 -0.06452948 0.20380908 -0.051513642 0.008714697 -0.28480062 0.05666666 0.12604198 -0.23082088 -0.055760615 0.098866865 0.13919719 -0.16661508 0.3423628 -0.15010257 0.22494493 0.012359406 -0.09819525 0.2599038 0.09826292 0.08519431 -0.040844273 -0.08633073 -0.05660358 0.35662702 0.119422756 0.28793725 -0.22138691 -0.057348195 -0.09688573 0.3953157 0.040709898 -0.078701556 0.10855715 -0.022156892 -0.0015988494 0.15762654 0.03752443 0.09702756 -0.18937704 -0.19640662 -0.149326 0.033116687 0.3052515 -0.35469463 0.13618208 -0.003682587 0.34997892 0.23764375 0.12953012 -0.21317692 0.024936471 0.5094097 -0.1544687 0.3654778 0.15673889 0.029617222 -0.04564525 -0.2778158 -0.1223715 0.097533606 -0.024053887 -0.15653653 0.037112154 -0.03235813 0.3847836 0.0027196235 -0.49546206 0.27113315 -0.19854891 -0.07609288 -0.02064755 0.25228155 0.07260125 -0.24994844 -0.020640422 -0.10785101 -0.18873125 0.3828136 -0.12537386 0.076402575 -0.278828 0.21021132 -0.25157616 -0.1763744 -0.23046921 0.19965664 -0.23059471 -0.30548915 -0.28882834 0.026189547 -0.013951615 -0.056448255 0.023030398 0.11077471 -0.03054849 -0.19546667 0.08260031 -0.09767408 -0.06822811 0.06646959 0.19053611 0.14729385 0.34446943 0.35693505 -0.06512692 -0.0022904847 0.03364268 -0.20941131 -0.08199905 0.16509642 0.21600215 -0.0286952 -0.0077758157 0.12719777 0.3191949 0.22609375 0.16588849 0.34427303 0.004731498 -0.26557988 0.11232497 -0.37726834 0.11394724 -0.2278748 0.014971015 0.43718234 -0.2817238 -0.26467595 -0.072048046 0.45142782 0.13571037 -0.2657971 0.13162673 0.13562626 -0.004626692 0.039254688 -0.17637624 -0.33589438 0.35496235 0.13665272 -0.27095506 0.3072819 -0.37188357 -0.019868482 0.45775262 0.04212979 0.29495308 0.040078193 0.30517444 0.20944403 0.28472158 -0.21016864 -0.2818348 -0.13911426 -0.17095155 -0.08645115 -0.24332531 -0.33232206 -0.37789756 0.32227147 0.19484694 0.1551491 0.22888295 0.28662258 0.2672438 -0.12894046 0.23438905 0.019049667 -0.24176271 -0.23287143 -0.06477238 -0.32992652 0.10559857 0.1251977 -0.14876541 0.3511357 0.3072965 0.036929965 -0.15283549 -0.05013512 -0.22625752 0.25777704 0.07954653 -0.107359424 0.09880433 0.017761247 -0.14845942 0.30586398 -0.09812458 0.28891388 -0.14407964 0.25689006 -0.042065784 -0.26232442 -0.037931524 0.17876776 -0.28966263 0.10103509 0.18132246 -0.18607494 -0.13421495 -0.08191804 0.16414842 0.02766078 -0.026488258 0.03662704 -0.05063923 -0.20046738 0.04312688 0.34931812
of -0.13237035 -0.08106872 0.017765934 -0.08875451 0.06544795 0.17757139 0.2541873 -0.5120003 -0.020407476 0.21855576 0.017570127 -0.04224156 -0.08994046 0.13590093 0.09590525 0.19096765 0.013118088 -0.09342308 -0.25186205 0.13256337 0.13063039 0.23804475 0.31135285 0.24508104 0.27196693 -0.03880238 0.31184068 -0.10471104 0.17323512 -0.09341966 0.18925926 -0.13951471 -0.24963777 0.12745963 0.12059379 -0.1211575 0.004252263 -0.06934462 -0.47673407 -0.033174004 0.040309712 0.5748343 -0.1604379 -0.0765666 0.089268245 -0.18644711 0.04593465 -0.05474846 0.05519904 0.19281913 -0.03025675 -0.44041058 0.041755352 0.14388263 -0.08618059 -0.05992237 -0.012998449 0.07066863 0.06879734 0.3742441 0.26479346 0.38385773 0.04456764 -0.14635774 0.34976625 -0.26404402 0.08412003 -0.17839698 -0.2346087 0.33261797 0.07571728 -0.062378857 -0.29074764 0.117023915 -0.19010684 0.1546927 -0.10226772 -0.09869148 0.035591003 -0.32327497 0.043728225 -0.039950527 -0.28508902 -0.08581054 -0.06358028 -0.17657514 -0.0012692395 0.061226293 -0.14760989 0.45116687 -0.14828962 0.46125022 -0.15363593 0.18957978 0.15141097 0.32771066 -0.10964156 -0.1765809 0.37731278 0.15233351 0.1847989 0.21597628 -0.026319783 -0.14396961 0.03412897 -0.06252061 0.18998845 0.16385776 -0.16829439 -0.037696786 -0.29552144 -0.12589571 -0.06691847 -0.040710755 -0.021143902 -0.093942426 -0.08831477 -0.056381106 0.08774737 0.24896859 0.091858596 -0.26278785 -0.07455587 -0.0710288 0.008883345 -0.073382586 -0.031707004 -0.099473715 0.007698053 -0.3020131 -0.28969413 -0.17253223 -0.1531859 -0.13944745 0.26884392 0.026956204 0.16797817 0.09092363 0.063638665 0.21103586 0.0039912798 -0.22201012 0.055920023 0.029955637 0.026699461 -0.2896038 0.15155903 0.014642596 -0.19082357 0.30298313 -0.021140035 0.26199427 -0.23860785 -0.36833492 -0.0136193205 0.20851877 0.15739007 -0.16623631 -0.14057013 0.07616459 0.102495186 0.057683785 0.14082012 0.058294054 0.07423627 0.050399244 0.034701258 0.08456274 -0.20700152 0.10980525 -0.29855862 0.10615762 -0.34340754 0.05798705 -0.02023459 0.05486943 0.23581667 -0.330801 -0.09085591 0.19616342 0.16351129 -0.49284875 -0.422034 0.22363982 -0.07452647 0.07813213 -0.24812454 -0.08499175 -0.10623238 0.32522002 -0.31862658 0.31658015 -0.17395088 0.1253475 0.27904382 -0.11652413 -0.34621334 0.2240189 0.05131679 -0.10802425 -0.1286655 0.16346098 -0.01706975 -0.22250046 0.24078465 -0.17088366 -0.017718647 0.20118017 0.19082282 0.020012937 -0.35489687 -0.14054641 -0.02453702 0.027625402 0.14805686 0.007110942 0.14110267 0.0066341762 0.13067304 -0.1419038 -0.2635111 0.20619574 -0.1380085 0.19527617 -0.3311973 0.13984124 0.07534715 0.2589666 0.12495485 0.13476215 -0.1621233 -0.32753232 -0.035311002 0.15001637 0.023380252 -0.14959443 -0.029084314 -0.19524525 -0.09456456 0.06675961 -0.04101777 -0.12790814 -0.07251677 -0.23022315 0.20700145 -0.18519993 0.10005703 -0.06955885 -0.117206655 -0.19747666 0.18962894 -0.00042902795 0.1523105 0.019416302 0.26521167 -0.050460223 0.20400167 0.1456921 -0.043154385 0.14782041 -0.32457182 -0.10452626 -0.3122016 -0.23182394 -0.113277406 -0.025084669 0.058912933 0.21610507 0.04600674 -0.16699043 0.067231044 0.024398955 0.40409216 -0.19777243 0.1258099 -0.22110431 0.026309855 0.38721743 0.035743307 0.007311369 0.025157118 -0.029209293 0.051475678 0.007946681 0.022414025 -0.09975441 -0.028216822 -0.06684887 -0.15232664 -0.029794594 -0.21328038 0.1518907 -0.10201734 -0.093979 -0.21074282 0.33758253 -0.36355436 -0.12775135 0.4937024 -0.01915689
computer 0.1867456 0.0350037 0.031473234 -0.07819453 -0.2188018 -0.17758939 0.05419047 -0.0878161 0.08215275 -0.32115477 -0.29346249 -0.18652508 -0.11149208 -0.102109514 0.065129295 0.29260492 0.27923006 0.17306845 -0.030069659 0.24553877 0.09683665 0.1380828 0.0051593534 -0.12077165 -0.07391207 -0.16613115 -0.031040428 -0.18246457 0.18661337 0.02859317 -0.2704035 -0.22481987 -0.11072234 -0.24873132 0.12259067 -0.16669342 0.076363906 -0.3021845 -0.1154996 0.04323299 -0.30783433 0.031390667 0.054690268 -0.19523574 -0.11625879 -0.17891116 0.3796403 0.23546623 -0.19351563 -0.20910154 -0.082651205 -0.03442579 0.052406546 0.23167963 0.08910745 0.19460464 -0.035336033 0.1789489 0.0824876 0.15802372 0.3358626 0.22072451 -0.10674634 -0.19789207 0.20559436 -0.28259835 0.14205734 0.2728082 -0.17430401 -0.12371328 0.20024517 0.16094878 -0.16479981 0.10508224 -0.34324604 -0.11537017 -0.15477774 -0.056539062 0.3214899 -0.06032894 -0.081931785 0.12715639 -0.16343203 0.22818999 0.24873815 -0.070623174 0.2274225 -0.12237946 0.0963692 0.19733813 0.24005255 0.1473781 -0.006165472 0.02531343 0.051055435 0.19639511 0.10366075 0.23849896 -0.170569 0.33478004 0.24339956 -0.12090036 0.15038699 -0.16754462 0.13947773 -0.07246065 0.038718 0.19835156 -0.004400357 0.17887436 -0.074787915 0.29748312 0.23979391 -0.15716377 0.32221878 0.05727897 -0.17077991 0.07038836 -0.2749293 0.3331159 -0.16644727 -0.107075706 0.35973242 -0.19288102 -0.00072363636 0.27088284 0.0056453682 -0.022807723 -0.30344874 -0.21699113 -0.29446092 0.15763359 -0.027846284 0.006082741 -0.03796523 0.23855145 0.2025541 0.1421373 0.16846187 -0.20647709 -0.24527746 0.11214902 -0.28613627 0.12999357 -0.18226199 -0.29786062 -0.09425817 -0.19283509 -0.27718374 0.008544498 -0.12974046 -0.11079682 -0.14862753 0.24022411 0.019215198 -0.14645763 -0.10832512 -0.14059752 0.32159165 -0.12976946 -0.08457636 0.14024054 -0.1204487 -0.015138154 -0.15813294 -0.35794204 -0.2698191 0.008681781 -0.2708273 0.19182944 -0.08516088 0.08683228 -0.35638985 -0.053858984 -0.17458813 0.35349923 -0.14919588 -0.3169564 -0.25395164 -0.06591666 -0.12393688 -0.14075962 -0.03977881 -0.017517416 0.030685235 -0.20608589 -0.023774728 -0.076253735 -0.15198642 -0.07997978 0.07684627 0.29536712 0.17254782 0.11676233 -0.22024338 -0.025003329 0.123494856 0.11695578 0.15682493 0.19979073 0.2934742 0.016032342 0.27886108 0.14245339 0.113941886 0.25325152 0.27710816 0.01710417 0.096653014 -0.12112585 0.050277553 0.0892942 -0.28080037 -0.30784646 -0.19185582 0.13414097 -0.06907575 0.08808433 -0.21414636 0.015576137 0.12687482 -0.26761988 0.12724058 0.26402384 -0.15760054 0.17593984 -0.110715434 -0.13705255 0.28435203 -0.16043593 -0.26931632 0.12227254 -0.25288 -0.29226393 0.12625037 0.0081634205 0.22631335 -0.035106927 0.20853314 0.25335395 0.35512364 -0.023523374 -0.34173208 -0.19566984 0.0066574416 -0.1503307 -0.21728496 -0.2584045 -0.2785501 0.042462997 0.0071252375 0.16634355 0.11338458 0.11665816 0.14553389 -0.19459075 0.09806896 0.052483764 0.015899321 -0.2437709 0.043475922 -0.055366956 -0.16994655 0.11660109 -0.06136083 0.16584302 0.21949835 -0.17963655 0.024112687 0.19801076 -0.17209166 0.044301882 0.11770321 -0.12854247 0.051203497 -0.09703761 -0.19736552 0.3339887 0.0036944854 0.15774497 -0.2765293 0.093343645 -0.1837527 -0.25693008 -0.328336 0.061294664 -0.14589395 0.16782378 -0.075972624 -0.15185091 0.10846914 -0.2543677 -0.06478297 0.10218152 0.10728162 -0.076829426 -0.076467134 -0.2575273 0.11494115 0.20661291
science, 0.28602636 -0.015888777 0.017351225 0.015984278 -0.28785625 -0.23060247 0.20914279 -0.16324955 0.00084831007 -0.30836722 -0.253835 -0.05718236 -0.1523503 -0.16541855 0.06141252 0.36931288 0.2949791 0.17968284 -0.011215073 0.26418832 0.1262387 0.12922566 0.14055446 0.0071563525 -0.07522158 -0.22579622 -0.15018997 -0.26883692 0.24376015 0.064510405 -0.2002608 -0.0485861 0.104825035 -0.31136337 0.25979885 -0.26960725 0.2133799 -0.33456892 -0.07263539 0.0831272 -0.28918883 0.1671744 0.11500374 0.052395497 -0.23826228 -0.21981023 0.37816468 0.19431938 -0.18418236 -0.20824385 -0.19847018 0.00991707 -0.03614287 0.2807807 0.14694634 0.27090442 -0.15541966 0.05240362 0.24355917 0.26828817 0.3851563 0.29681996 -0.12027936 -0.22099015 0.15670227 -0.20374419 0.283487 0.25289944 -0.24186204 -0.16687179 0.22169718 0.17664373 -0.20994075 0.22597508 -0.29962847 -0.24004152 -0.15720564 -0.13606681 0.31562954 0.038450945 -0.06876213 0.012164226 -0.23198944 0.23743796 0.27483973 -0.10426853 0.1702161 -0.23162316 0.0636673 0.27078947 0.28514713 0.25546512 0.04419873 0.042737428 0.112708025 0.295352 0.16711257 0.1289868 -0.21554075 0.33025283 0.2823447 -0.07747355 0.2506608 -0.09088593 0.09238253 -0.19102445 0.065228395 0.25110123 -0.052708913 0.2161239 -0.14022484 0.2037755 0.26838383 -0.21886227 0.23816773 0.05220442 -0.0658845 0.14367174 -0.24745686 0.34479526 -0.1485732 -0.09958395 0.36961445 -0.21351384 0.106172286 0.29020593 -0.096947074 0.025204392 -0.31899992 -0.25647733 -0.26787302 0.24870603 0.015879672 -0.11300325 -0.10609152 0.30598766 0.2229883 0.14188927 -0.050936528 -0.27119207 -0.24779405 0.11977729 -0.20863976 0.22790825 -0.24896449 -0.27107954 0.083982356 -0.22782023 -0.32686967 -0.09853947 -0.2117456 -0.1710998 -0.15055677 0.17855678 0.019414047 -0.12870403 -0.16064051 -0.17262849 0.104536556 -0.054067686 -0.0131580625 0.086742304 -0.20545374 -0.042858772 -0.2613017 -0.296776 -0.23652603 0.10024835 -0.30609003 0.24537435 -0.18602356 0.11886881 -0.2574009 0.0021045927 -0.23007071 0.33601063 -0.15158488 -0.33188847 -0.3201561 -0.1846718 -0.20752968 -0.14964692 -0.029546795 0.013094292 0.1951618 -0.13698919 0.031067465 -0.09808606 -0.2196966 -0.030571189 0.14764132 0.27537724 0.04450129 -0.053491987 -0.23442662 -0.11599044 0.10049222 0.19275804 0.17173849 0.2380932 0.2991048 0.033538047 0.30573773 0.13096476 0.23411104 0.29519305 0.30479574 -0.09538852 0.19632185 -0.24741839 0.06503313 0.016957475 -0.24285017 -0.3366418 -0.16302016 0.20854853 -0.060580187 0.103493564 -0.23719716 0.13713402 0.23028374 -0.2607074 0.1759672 0.2012777 -0.1363164 0.23768118 -0.038187817 -0.12858605 0.29091492 0.03901511 -0.2889355 0.18236443 -0.27121708 -0.18615574 0.16840799 -0.027609613 0.299795 -0.041612905 0.28326628 0.19737342 0.33403397 -0.18038122 -0.31991425 -0.20900737 -8.099035e-05 -0.2695088 -0.2919747 -0.20316754 -0.2588406 0.067571975 -0.093606755 0.23646708 0.25741947 0.17685384 0.1978779 -0.21629614 0.100747146 0.15599513 0.05864295 -0.25083748 -0.02573699 -0.24472891 -0.09973363 0.22415452 -0.048101578 0.2265414 0.26269215 -0.14199327 0.09130262 0.171227 -0.21492563 0.049768247 0.17476694 -0.18670437 0.16978087 -0.19033395 -0.16064915 0.2774644 -0.028594062 0.18654588 -0.30037582 -0.064114735 -0.20210078 -0.25202855 -0.26585853 0.061923955 -0.18556875 0.18215017 -0.082665645 -0.23380531 -0.082551 -0.18106608 -0.20525609 0.20638265 0.17715602 0.01767529 -0.1510527 -0.23754995 0.15562847 0.19064955
artificial 0.15148844 0.003814616 0.12015003 0.109291725 -0.2059859 -0.28303832 0.31381878 -0.12942621 -0.06888611 -0.26785928 -0.3455065 9.217324e-05 0.044332534 -0.1354864 -0.041224465 0.23234522 0.31832656 0.20613383 -0.11722468 0.27780628 0.062891595 0.06389618 0.23211695 0.0075329063 0.028566536 -0.2759827 -0.0038443382 -0.301311 0.23250766 0.028250195 -0.20334251 -0.06093458 -0.036773715 -0.16432294 0.1337099 -0.11613129 0.30041578 -0.338417 -0.15482289 0.20243931 -0.32485548 0.19905789 -0.09387091 0.012876996 -0.17492083 -0.1552309 0.38623694 0.25290737 -0.22583985 -0.15655364 -0.31015807 0.08043977 0.13104634 0.27064437 0.23422198 0.13435504 -0.14893208 0.19320688 0.17050578 0.14200331 0.3428903 0.22465952 -0.10340628 -0.13711013 0.15075949 -0.30358222 0.22416827 0.27849534 -0.28375658 -0.08112057 0.23155493 0.15336803 -0.08952452 0.115792535 -0.23591165 -0.25675675 -0.31345707 0.0053599505 0.3055277 -0.035670772 -0.08952012 0.12031295 -0.14422749 0.26366597 0.1425847 -0.15039411 0.12330315 -0.2740875 0.13805903 0.31580412 0.3813587 0.2027209 0.12073948 0.18141432 0.2114526 0.33614823 0.17298628 0.2484876 -0.23843195 0.26887128 0.21760336 -0.042510625 0.15227638 -0.16018939 0.08245506 -0.18789178 0.12806533 0.09687886 -0.020956166 0.2689864 -0.20046708 0.28547806 0.394096 -0.31971654 0.19565819 0.041068748 -0.06866324 0.22879772 -0.18472862 0.32314426 -0.23304036 0.000111040776 0.3966933 -0.34158897 0.15023161 0.2168397 -0.16860045 -0.038078934 -0.28759983 -0.23739722 -0.28600094 0.2626122 -0.034318432 -0.04288067 -0.11300765 0.28012317 0.1382634 0.11204998 0.070435375 -0.2270727 -0.32195443 0.003022308 -0.2677963 0.045904536 -0.31366268 -0.30084 0.12179894 -0.20635821 -0.30731127 -0.078946784 -0.14108337 -0.15426476 -0.26849052 0.1817495 -0.057068136 -0.23067574 0.00021021982 -0.2942438 0.22611359 -0.22473723 -0.17965244 0.059006114 -0.1565625 0.01180276 -0.19829793 -0.30749115 -0.23132482 -0.05624275 -0.26810843 0.267889 -0.11236051 0.07243933 -0.24252814 -0.046144705 -0.07640602 0.2550725 0.0035806159 -0.21250795 -0.25278342 -0.18089414 -0.11359427 -0.33090493 -0.13589296 -0.097666286 0.18903267 -0.27201733 0.05656912 -0.17661482 -0.2915566 -0.06624674 -0.051395576 0.25301185 0.0036961413 -0.08444084 -0.30773476 -0.09661448 0.09681604 0.18901725 0.27414474 0.1552671 0.27704212 0.044137664 0.33933267 -0.011691733 0.15852518 0.17782402 0.32642415 -0.0052685705 0.16767274 -0.12705085 -0.00961387 0.16320412 -0.334695 -0.23838076 -0.24120183 0.033654716 0.049061567 0.22500741 -0.20483343 -0.007928929 0.09895551 -0.19102924 0.2648108 0.24773669 -0.1756683 0.2959431 -0.12214597 -0.061745062 0.23019083 -0.2623674 -0.10512232 0.07217356 -0.3266806 -0.28901413 0.1066268 -0.07531772 0.16634637 -0.044678953 0.26816624 0.11759162 0.32620242 -0.15204592 -0.27728292 -0.07645349 0.14192703 -0.2617945 -0.1893141 -0.22981992 -0.1397877 -0.1436791 0.011789814 0.1605565 0.2219389 0.046089027 0.08147927 -0.28850693 0.20494369 0.2551762 0.11415608 -0.16456704 -0.0047557447 -0.12516415 -0.16594923 0.11930553 0.11580595 0.07542957 0.15220155 -0.19207701 0.20123838 0.18115446 -0.09788092 -0.03468216 0.053559892 -0.1037741 0.1479255 -0.23793642 -0.16409305 0.3159441 -0.13193387 0.08945227 -0.24492519 -0.11500697 -0.2535443 -0.19922797 -0.34671915 0.14974886 -0.10225279 0.17521398 -0.037813496 -0.13423084 0.13579421 -0.23881122 -0.29276294 0.15464307 0.21701555 -0.015839238 -0.0046259207 -0.19490162 0.11512901 0.21972656
intelligence, 0.07647691 0.04663005 0.2654909 0.09227467 -0.105077714 -0.24540219 0.3920055 -0.27237087 -0.008521068 -0.20547391 -0.23976977 -0.0106391935 0.069276474 -0.11888298 -0.036078617 0.13421005 0.40555552 0.31009036 -0.21756597 0.2869373 0.03518052 0.19595163 0.30245548 0.063943245 0.16043723 -0.25177574 0.07517396 -0.4288266 0.21375231 0.049085524 -0.14252184 -0.10141563 -0.03875638 -0.10113028 0.022261862 -0.06463527 0.4089905 -0.3034923 -0.2856449 0.31744677 -0.3937807 0.19904043 -0.19044879 0.16106915 -0.15485667 -0.17839782 0.43548894 0.24048989 -0.16096462 -0.28144103 -0.40611497 -0.03790523 0.27938554 0.339562 0.3108001 0.20231546 -0.17582573 0.1520635 0.11783372 0.090805724 0.35927838 0.23604305 -0.21119559 -0.06848321 0.11716439 -0.26034155 0.15295917 0.32438686 -0.2651537 0.031063957 0.18944114 0.2944949 -0.13990635 0.05642501 -0.35578436 -0.25812384 -0.4096159 0.036606636 0.42803523 0.009118533 -0.2296393 -0.1409691 -0.061797213 0.2717021 0.10084295 -0.17026378 0.19906662 -0.41514373 0.03772249 0.38661537 0.39944604 0.22618705 0.34074372 0.21254395 0.29564303 0.41338286 0.17384271 0.09941423 -0.3097612 0.20932771 0.11313076 -0.19584784 0.09019135 0.026605397 0.172018 -0.21501215 0.17284451 0.07763278 -0.067909494 0.3178563 -0.04866507 0.32174033 0.43604448 -0.35977414 0.17417645 0.18518884 -0.14882328 0.3954441 -0.2131707 0.31963235 -0.33017915 0.15171765 0.41973466 -0.46175292 0.18150681 0.030659167 -0.19107547 -0.06388056 -0.2434007 -0.1682279 -0.26111978 0.24045895 -0.04222695 -0.002285343 -0.13893019 0.17450172 0.15235415 0.028222276 0.036983028 -0.2619784 -0.40679288 0.055381887 -0.349904 0.012829002 -0.3617117 -0.37879753 0.13459304 -0.3415418 -0.32084966 -0.15691063 -0.07378568 -0.17203803 -0.3281391 0.17690566 -0.03408718 -0.22602612 -0.008864704 -0.3403265 0.20426828 -0.26389062 -0.16999117 0.08603313 -0.051103663 -0.0014989747 -0.106890984 -0.35595956 -0.15758537 -0.11402673 -0.25868955 0.33364078 -0.035173994 0.05246628 -0.3040841 0.025969284 -0.011549626 0.17971714 0.013947821 -0.175141 -0.18629745 -0.10841486 0.019375656 -0.4104943 -0.21513061 -0.23316184 0.20887409 -0.23856157 0.022833865 -0.3090988 -0.3471264 -0.1831978 -0.08093205 0.18038112 0.039861694 -0.05283533 -0.34340158 -0.13668586 0.031653766 0.22112948 0.3569478 0.053521775 0.2456442 0.15667002 0.35160756 -0.053345207 0.10399096 0.10100994 0.2459871 -0.1363803 0.37044436 -0.078754745 -0.08742212 0.24228564 -0.34248704 -0.16259368 -0.28123873 -0.033489145 -0.0844097 0.33740303 -0.15580854 -0.005480685 0.036105875 -0.24254307 0.42846075 0.17674921 -0.35227594 0.40526456 -0.27763313 -0.1251272 0.19701926 -0.301322 -0.111423165 -0.033601873 -0.4004513 -0.37032533 0.213929 -0.10156383 0.105245225 -0.041091856 0.3687233 0.03704096 0.31483817 -0.14623119 -0.22059986 -0.12153855 0.122598305 -0.29490158 -0.16035137 -0.34472832 -0.077116124 -0.15405214 0.0123190805 0.13832329 0.24488744 0.0069264127 0.047137257 -0.31470677 0.11442357 0.29787508 0.16571361 -0.25776488 -0.016043663 -0.084257364 -0.2395168 0.11399603 0.16842939 -0.0058496087 0.06508945 -0.12128879 0.29185072 0.27751687 -0.028513001 -0.060155816 0.19045077 -0.1367169 0.21441458 -0.3333415 -0.20747733 0.2505089 -0.28004444 0.027690662 -0.20377992 -0.17411958 -0.37914294 -0.14341347 -0.41619593 0.34956402 -0.0062036114 0.04156396 -0.07243865 -0.026643114 0.25504938 -0.3169347 -0.41398948 0.05897877 0.1521844 -0.1558105 -0.08576421 -0.121985674 0.23648426 0.2944416
and 0.51717824 0.36408868 -0.17587209 0.11464402 -0.11460694 0.023139095 0.4900868 0.06723137 -0.11883455 -0.42853022 -0.06376028 0.3183118 0.22917151 0.0684294 -0.2651372 0.24206026 -0.07498205 0.092542 -0.37450737 -0.0054306556 -0.31581426 -0.21878214 0.60874164 -0.18178278 0.50518507 0.06148534 0.11816307 -0.14337012 0.14716001 -0.027111793 0.20092605 0.114738576 0.14203162 -0.37890512 0.38693014 -0.2753908 0.34849164 -0.17537796 -0.18215118 0.20851138 0.22211826 0.38692623 0.28171042 0.3724067 -0.59973943 -0.2943022 0.17579779 0.025096431 -0.22748461 0.41380647 -0.29886517 -0.12799555 -0.38562638 0.15403047 0.22004654 0.40749735 0.21257941 -0.24220154 0.27138516 0.2362317 -0.00797099 -0.0782623 0.49123672 0.18494041 -0.36631855 0.30782533 0.17370038 0.120798334 -0.60975623 0.1520102 0.12206633 -0.0028864997 -0.095965825 0.27880087 0.0667967 0.09823922 -0.095021665 0.06286877 0.18547578 -0.02365563 0.007990594 0.14683157 0.090393774 -0.06143669 0.29855576 0.024466705 0.2431152 -0.14419596 0.1728147 -0.015734738 0.07254935 -0.15019768 0.2868055 0.26896438 0.16329059 0.4147873 -0.043144714 -0.40204328 -0.25487766 -0.00273215 0.04802866 0.25261793 -0.24790475 0.08905678 -0.07293336 0.08991561 0.16880873 0.08734465 -0.50295186 0.47221953 -0.5663973 -0.19464532 0.16864032 -0.26375437 -0.24159968 -0.1910502 0.41861388 -0.32209906 -0.13042177 0.28503355 0.15084563 -0.14342675 0.27470633 -0.17374347 -0.16516829 -0.14303678 -0.27746597 0.0016746047 0.17006426 -0.01095232 0.016747748 0.027840095 -0.3498888 0.2492981 -0.24973871 0.4783825 -0.035882205 -0.46097463 -0.13583514 -0.41973183 0.19538206 -0.31831393 0.2493657 -0.025163598 -0.28353578 -0.31761003 0.055292446 0.090995826 -0.13195394 -0.21898457 -0.2189759 0.13857496 0.022677077 -0.29199928 -0.47744268 -0.14243555 -0.10055325 0.06394593 -0.16048525 0.2032239 0.23645702 -0.43441653 -0.10841494 0.15104939 -0.15099473 0.1845959 -0.30438992 -0.22390683 0.45759797 -0.07160077 0.3548253 -0.29617992 0.6487414 0.12531997 -0.093139425 -0.1543837 0.15553246 0.3340189 -0.26242036 -0.2006 -0.16289592 0.08913749 0.080217786 -0.01309916 0.1797726 0.081378825 -0.06039109 0.18578494 -0.032192945 0.11826834 0.10181893 -0.34433556 -0.48075387 -0.42097828 -0.07074872 -0.3619007 -0.15950656 0.19322918 0.10586742 0.039121814 0.18570377 0.43228096 -0.20172784 -0.14611988 -0.25098118 0.2893864 0.26660597 -0.044385392 0.3539015 -0.32282037 -0.16510259 0.1722255 -0.22131419 -0.20266029 -0.030623227 0.037987653 0.08454128 -0.09336864 -0.07012028 -0.028838223 -0.013632989 0.07029402 0.009329068 -0.09473101 0.18293336 0.30621266 0.22421512 0.07467672 0.06668669 -0.008764956 -0.1504892 -0.04571229 -0.026358416 0.16439629 -0.17950156 -0.33302626 0.23939969 -0.25344324 0.27003193 -0.23956817 0.062746264 -0.032374106 0.020507501 0.15923795 0.107356444 -0.278386 -0.35756624 0.46385288 0.21756163 0.18560159 -0.15707296 0.30058575 0.2491916 0.020850636 -0.03223083 -0.048740692 -0.30250907 0.24146667 0.44523463 -0.29296616 -0.056522205 -0.0420285 -0.26835993 0.3400661 0.07106595 -0.09575809 0.21497363 -0.24539407 0.36235777 -0.17824678 0.27013886 -0.18514141 0.06193926 -0.29416546 0.029658748 0.05954118 0.0111997295 -0.45571756 0.25914645 0.30869508 0.3197607 -0.019755911 -0.028522233 -0.006892907 0.057194818 -0.19281718 0.22877015 0.44474688 -0.39494953 0.18300645 -0.48561487 0.059017524 -0.23694716 0.16463074 0.27494308 0.22514707 0.30332333 -0.011678852 -0.06816368 -0.20632859
linguistics 0.0056813518 0.23676965 -0.16606794 0.13399366 -0.06524233 -0.29888842 0.15515803 -0.040542442 -0.019793574 0.085933976 -0.46652135 -0.03322912 0.17027201 -0.0020413562 -0.28857523 0.17610765 -0.08458228 -0.21977293 -0.011717358 0.4476063 -0.1708829 -0.17782718 0.24500264 -0.21367554 0.05562397 -0.13209115 0.20608528 -0.0008989864 0.21202649 -0.175905 -0.13458553 0.108770505 -0.19037873 -0.27659538 0.020534096 0.0032075564 0.15145099 -0.49545226 -0.02065777 -0.11781054 -0.09372342 0.009130962 0.16682659 -0.058109194 0.17129351 -0.016427582 -0.014059366 0.16612405 -0.3542037 -0.037841976 -0.2131562 0.1667253 -0.028838996 -0.02831072 0.47463936 -0.01846307 -0.016743653 -0.06563009 -0.04611793 0.056154884 0.41617265 0.04439751 0.11370572 -0.38898417 0.07489114 -0.15386368 0.14104314 -0.11048237 -0.29552528 0.021620356 0.15202978 -0.3016089 0.1899592 -0.061696418 -0.20768246 -0.10469428 -0.13356076 0.23524092 -0.21202153 -0.3886559 0.30196437 0.33753976 -0.20373048 0.32357684 0.07032528 0.0003330555 0.043450814 0.033925883 0.3337211 0.3120254 -0.008831865 0.11975026 -0.05453814 0.26561227 -0.09589091 0.41773567 -0.1975597 0.15586933 0.21836941 0.467753 0.2558704 0.3097033 -0.011411412 -0.29967752 -0.029459348 0.028602436 0.18832424 0.16710229 -0.068805575 -0.019165058 -0.21542464 -0.031502504 0.15946403 0.017490238 -0.050639 -0.22284453 0.051952913 0.024527293 0.08340812 0.16808662 0.04318611 -0.24885386 0.10318992 -0.07287473 -0.09728129 0.07661901 0.090259664 0.05682675 -0.1537151 -0.3513478 -0.16125162 0.27228475 -0.18845811 0.10516863 0.1544847 0.43181208 0.05918968 -0.08974155 0.21275462 0.22239906 -0.12376846 -0.2532951 -0.058392204 -0.012902707 0.032865148 -0.2264242 -0.3482291 -0.13650174 -0.47127512 0.3588278 0.05175219 -0.030707099 -0.1302501 -0.041490555 -0.20998879 -0.02266368 0.3410342 0.07988894 -0.08202078 -0.32663256 -0.34967628 -0.10196682 0.21993512 0.14126946 -0.16377151 -0.14923388 -0.07083161 -0.02750558 -0.25167778 -0.030900769 -0.22755747 0.2580656 -0.19917041 -0.34574273 0.2686524 -0.010851283 -0.006608193 -0.16168897 -0.12445845 -0.085075505 -0.060959153 -0.19296782 -0.17486264 0.04718537 -0.028582836 -0.40964 -0.0057065836 0.021955358 0.04669316 0.1684041 -0.16401565 0.24931003 -0.32257134 -0.19344069 -0.29308942 0.2764818 0.021330824 0.061841354 -0.06579483 0.113840796 0.23941265 0.06339198 0.26190063 -0.12054273 0.0901636 -0.074026376 0.32127565 0.024111068 -0.22317147 0.046604488 -0.023643328 0.19502427 -0.55032873 -0.095432445 0.06364004 -0.19630174 0.37030494 0.15777208 -0.036033697 -0.23800683 0.10456276 0.08189404 0.0066736834 0.02042218 -0.16543873 -0.04547149 0.104833424 0.12390533 0.06901175 -0.03990715 -0.1480022 -0.15219815 0.103479445 0.08648746 -0.29434893 -0.014258876 0.102967724 -0.09903786 -0.09531253 0.06410832 0.3705637 0.044758715 -0.05792823 -0.0775465 0.40280214 0.0055513107 0.06155522 0.12926532 -0.05325859 -0.26871744 -0.038569607 -0.010469836 -0.015358905 -0.24826364 -0.18361379 -0.3874636 0.3253997 0.1324578 0.132211 0.16388433 0.09818859 0.0018299246 -0.07159119 -0.18923292 0.34503007 -0.0018015447 -0.01397629 -0.005837462 -0.12224736 -0.12139383 -0.0058091083 0.07772567 0.066190064 0.18285525 -0.24616368 0.042008534 -0.015485677 0.16208461 -0.070897244 0.01205641 -0.4132834 0.054979354 0.1303086 -0.29799196 -0.093609504 -0.09192215 0.1951033 0.1673897 -0.09475149 -0.25029516 -0.092711724 0.05454305 0.06016297 -0.06642155 0.024092898 0.27555448 0.18614174 -0.39209497 0.28076634 -0.009225525
concerned -0.05265157 0.11154668 0.05488204 -0.015571509 -0.23767807 0.038131565 -0.0439179 -0.14244092 0.030488973 0.11087723 0.017019141 0.027407411 0.108230166 0.037393026 -0.11796124 -0.024000037 0.29130077 0.048149455 -0.16507779 0.39187375 0.03288524 0.05687283 0.09310523 -0.039185725 0.113242134 -0.17698392 0.15998426 -0.285716 0.052549236 -0.08844856 -0.052914593 -0.035605926 -0.12517273 -0.009464158 -0.074854136 0.00607781 0.2452147 -0.17871472 -0.22741032 -0.018399972 -0.22885153 0.19727081 0.07704509 -0.083839014 0.10148438 -0.24531879 0.32694635 0.008407693 -0.05322933 -0.22952707 -3.120944e-05 -0.03661406 0.2018994 0.25725472 0.15705906 -0.056518234 -0.10601232 -0.16979286 -0.011065579 0.024724584 0.27459866 0.08716837 -0.26381424 0.12617591 0.008570185 -0.1406131 -0.042154253 0.26868466 -0.26109344 0.15425542 0.16944943 -0.0048398753 -0.008888976 0.0439171 -0.19758143 -0.005548784 -0.41258445 0.11026181 0.37827224 -0.25875407 0.15051642 0.059502505 0.044704758 4.700016e-05 0.061490208 -0.25081915 0.04110939 -0.27662498 0.026771452 0.17184311 0.0037456085 0.2589742 0.20277546 0.07545704 0.024031095 0.2931586 -0.071074694 -0.016130818 0.025327586 0.12211711 -0.04163792 0.060570773 0.008774936 0.07055812 0.14614417 -0.057215672 0.24172346 -0.0040373593 -0.12231572 0.13751918 -0.07445176 -0.06605009 0.16906036 0.04798095 -0.0030313786 0.15425473 -0.058054935 0.39728057 0.14760718 0.37520763 0.009970404 0.16743785 0.38958147 -0.28251466 -0.025233313 -0.13594984 -0.19983663 -0.08161739 -0.19685054 -0.048340134 -0.15314882 -0.10273853 -0.10092197 0.04235315 0.10136168 0.030256389 0.2672546 -0.016773345 0.24154514 -0.1226733 -0.3109471 -0.07999945 -0.34106025 0.08616052 0.044611543 -0.25702685 -0.054359213 -0.22630163 -0.33778062 0.037598833 0.08736803 -0.013502629 -0.15367487 0.122274175 -0.067823224 -0.1100456 0.15833114 0.07440787 -0.2220504 -0.1369322 -0.05336645 0.00087836647 0.17855872 0.078416616 -0.056299444 -0.2846346 -0.119498506 -0.1330414 -0.12277551 0.22753605 -0.0088772625 0.042303998 -0.3634845 -0.12189894 0.12429239 0.028572802 0.07765864 -0.0668827 -0.23687723 -0.060704224 0.094178826 -0.12637183 -0.30989075 -0.10674809 -0.0246988 -0.18357268 0.028044173 -0.26949555 -0.05767935 0.027871985 -0.26532158 -0.00061709457 -0.060185894 0.049063623 -0.2120995 0.1326639 -0.13599798 -0.01931176 0.18171845 0.0011528846 -0.10814165 0.11701565 0.31676278 -0.2399981 0.09586771 -0.05450376 -0.016431661 0.18298635 0.23990272 0.00020178316 -0.095450304 0.07536751 -0.16464278 -0.16687226 -0.153468 -0.12563014 0.105071485 0.07840934 -0.10846054 -0.08857005 0.1497004 -0.2282215 0.44483304 0.08266916 -0.09147377 0.10924671 -0.30610004 -0.14897199 0.29297388 -0.0051876525 0.05310428 -0.0516806 -0.26635906 -0.074315675 0.03938775 0.025039554 0.067902945 -0.1610496 0.26863766 0.07958485 0.29403305 -0.055320933 -0.2340634 -0.0109904865 0.20362438 -0.10705892 -0.21375743 -0.15475711 -0.06585448 -0.2364714 -0.030182784 0.12775125 0.1486631 -0.02047099 -0.07669071 -0.10919003 0.13783658 0.003755367 0.12759274 -0.05860912 -0.0014290169 -0.04171623 -0.2017518 0.00022233513 0.07025967 -0.12510124 -0.013032196 0.14124903 -0.018400408 0.12760197 0.055944677 0.07291627 0.12052931 0.033188965 0.0610668 -0.20036556 -0.24720874 0.10337954 -0.21868981 0.059980508 -0.22362468 0.0499364 -0.30574426 -0.16326386 -0.25291252 0.38681692 0.20850384 0.19436048 0.015135283 -0.11498691 -0.03470164 -0.1408044 -0.1970467 -0.13533388 -0.10341661 0.1784693 0.0499773 -0.24701534 0.11844798 0.32451147
with -0.08885018 0.31724322 -0.2153154 0.27044705 -0.33697557 0.26140094 -0.09416939 -0.37434417 0.19117026 0.22153898 -0.046402205 0.062151197 0.45498195 -0.046296474 -0.09727676 0.19595817 0.013075561 -0.25815222 -0.013726505 0.24485573 -0.14615162 -0.011073528 0.25878724 -0.09816837 0.06375826 -0.13711502 0.11094116 -0.13789754 -0.045745723 0.16842368 -0.22186658 0.0279525 -0.3593155 -0.14525238 -0.12849763 0.13282669 0.34502673 -0.3398908 -0.19732176 -0.22694422 -0.33422953 0.17346571 -0.20403127 -0.28427076 0.08074858 -0.48108003 0.2279165 -0.1393422 -0.44530383 0.068667576 -0.032163244 0.41316438 -0.08208417 0.015698718 0.08859219 -0.0400384 0.010941688 -0.13923615 -0.0076738773 -0.24972771 0.12071705 0.2329212 -0.33988464 0.28809154 -0.12905927 -0.010961032 0.24797195 0.07988148 -0.6050074 -0.0133719975 0.26007038 0.006364812 -0.27939317 -0.07559959 0.14395906 -0.087829076 -0.21005975 0.3779803 -0.3829175 -0.5771251 0.25869188 0.019702429 0.08666436 -0.31819558 -0.26891747 0.062644154 -0.17309815 -0.059668552 -0.120989986 0.30025655 0.25506368 0.28837076 0.305529 0.167807 -0.017064953 0.31340393 -0.1825497 0.58896756 0.19975312 -0.037648898 0.022580618 0.24306005 -0.04415162 -0.19285662 -0.1152299 0.14546682 0.27045593 0.038707774 -0.27110064 0.027562555 0.08634387 -0.03890751 0.0058737346 0.26610222 0.0075409627 -0.16316593 -0.023850694 0.097393505 0.09845568 0.19011092 0.25195986 0.28438863 0.17453536 -0.13129303 -0.015163415 0.04770471 0.056536127 -0.003589663 -0.20270018 0.14117737 -0.2399618 -0.023860155 -0.17642988 -0.013657244 0.18988271 0.26912984 -0.09496203 -0.11123824 -0.008843858 -0.07025996 -0.04667939 -0.19051577 -0.10709704 0.03229855 0.031805504 -0.13706835 0.12841761 0.26662424 -0.37640774 0.17379725 0.09272742 0.08327179 -0.2409593 0.059210625 -0.13705963 -0.28700757 0.47707546 0.17463936 -0.029815724 -0.1457081 -0.10756248 0.13513972 0.3363153 0.017497038 0.101850905 -0.11738548 0.044675093 -0.1955264 0.004155051 0.14837952 0.22992665 0.1283809 -0.16495652 -0.295056 0.23456736 0.06789554 0.19157822 -0.24869415 -0.08648434 0.05276556 -0.04784135 0.084590115 -0.63250005 0.052462246 -0.1429531 -0.17387617 0.080385186 0.08637324 -0.03358974 0.27679455 -0.5680282 0.04764103 -0.37284508 -0.31247383 0.009296642 0.16658434 -0.06426567 0.056095667 -0.15944484 0.39204934 -0.4654516 0.0046942094 0.20234475 -0.3735627 0.17978609 -0.2393567 0.116473384 0.37638232 0.20899858 -0.02186467 0.31194758 0.2997959 -0.14390081 0.06723551 -0.086916134 -0.20097 0.2037294 -0.08590357 -0.099784985 -0.19018336 -0.13536826 -0.03172893 0.5035259 0.019256726 -0.28876713 0.17316087 0.02355937 -0.20960535 -0.11648924 -0.23872958 -0.03900395 0.2009197 0.22903764 -0.08863903 -0.45679373 -0.035722844 -0.0361923 -0.30741465 0.13281123 -0.27056056 -0.22393876 -0.19996388 -0.21793248 -0.16692548 0.09614648 -0.11172205 -0.17756887 0.40415102 0.17030992 -0.39240044 -0.06376388 -0.28964707 0.21324725 -0.13445106 -0.07544728 -0.10243022 -0.16361661 -0.09592079 0.1336083 0.17414854 -0.02874922 -0.36650273 -0.073097475 -0.34854037 -0.087392785 -0.05701564 -0.23728263 -0.035929047 0.15956213 -0.28739214 0.08904709 -0.13424209 0.39747286 0.046754565 -0.0924375 -0.019545304 0.016892856 -0.050268937 0.010552929 -0.078078575 -0.08875025 0.22877204 -0.1307314 -0.17601009 -0.26612127 0.06767309 0.5125305 0.28694835 -0.12147373 -0.024259772 0.3254457 0.06706813 -0.11267768 -0.048277464 -0.18575592 0.37362936 0.27966872 -0.4674455 0.3915926 -0.06824534
interactions -0.048788264 0.11747168 -0.058443435 0.14764105 -0.21890876 -0.17181571 -0.057201467 -0.036004484 -0.17138752 0.030929197 -0.09253321 0.1169664 0.21377619 -0.036308907 -0.18474543 -0.17883 0.18585962 -0.091653384 0.014873604 0.31149787 -0.010927015 -0.19461322 0.09294181 -0.21221298 0.20172085 -0.26431486 0.18870743 -0.10473711 0.13860644 0.06726769 -0.16139242 0.1796003 0.06880013 0.042195655 0.035652455 0.054018416 0.15265238 -0.1526159 -0.07116817 0.027097123 -0.034922212 0.20928514 0.16362555 0.10765265 0.010108062 -0.13673134 0.28301445 0.12583771 -0.1324765 -0.12563246 -0.0011856373 0.08534 0.08774002 0.1379205 0.2858271 -0.1304493 -0.10254217 -0.06554173 -0.002956896 -0.04848506 0.21067162 -0.027512059 -0.17632739 0.28446794 0.029546037 -0.14967564 -0.03158537 0.15331297 -0.24927387 -0.12572926 0.02504754 -0.00083979015 0.061653618 0.11368969 0.09222407 -0.1800249 -0.31670517 0.22158447 0.09624094 0.041451555 0.22114936 0.2621515 -0.019209826 0.16398321 0.03164325 -0.04343418 -0.1171639 -0.32976034 0.1880958 0.08313856 -0.0508409 0.24481957 -0.10646789 0.17845604 0.013697478 0.2547513 -0.08356171 0.18251015 0.13201137 -0.078524016 0.0061358064 0.1714134 -0.0772299 -0.157157 -0.014379867 0.15782481 0.124571234 -0.085102566 -0.08975426 0.16840234 -0.2668668 -0.24713202 0.10870449 -0.04593164 -0.059009302 -0.008985519 0.10262241 0.25777993 0.07389956 0.2592554 0.11303437 -0.0012154217 0.27413744 -0.17547576 -0.09314598 -0.04445858 0.042643346 -0.17682551 -0.10463307 -0.18023181 -0.15981914 -0.045991242 -0.055963084 0.09703016 0.023226535 0.100874655 0.15501995 -0.08481458 -0.0030283066 0.09130755 -0.099810705 -0.2326716 -0.2899761 0.03952043 -0.029269386 0.12217755 0.13911769 -0.044286266 -0.28548387 0.16325437 -0.10821344 -0.22745083 -0.19656087 0.14519341 -0.19232702 -0.2385105 0.20207389 0.21631908 -0.40480942 -0.28676108 -0.22878262 -0.10620257 0.020044072 0.09390665 -0.16157046 -0.11650033 -0.23741417 0.16606353 -0.0484244 0.28500044 -0.09553918 -0.043222837 -0.06410499 -0.27637583 0.15686756 -0.040812563 0.15933488 0.0839513 -0.29672766 -0.19373381 0.05179241 -0.16698162 -0.14962448 -0.06254434 -0.088668615 -0.34897947 0.2274025 -0.1640894 -0.19844389 0.14294991 -0.15172705 -0.046374913 -0.029859077 -0.0075247562 -0.30180344 0.0497961 -0.16073063 -0.21941681 0.020950338 0.10146246 -0.10779489 0.084990196 0.24681777 -0.054863058 -0.029885454 -0.19711255 0.11909967 0.28229904 -0.15992615 0.019890929 0.07340593 0.120571405 -0.12119391 -0.15399247 -0.27635536 -0.06819415 0.21422821 0.004970741 -0.11801336 -0.12689368 0.100736916 -0.26809573 0.14754854 0.28524795 0.048598368 0.17935832 -0.19349164 -0.19017723 0.22043443 0.21400043 0.17876816 -0.22846349 -0.24717343 -0.027316947 -0.042109318 0.07601968 0.08408368 -0.23343557 0.19907245 0.19343601 0.16149217 -0.07848106 -0.13089643 0.11961168 0.34448445 0.0028711208 -0.1054841 0.16260493 -0.08939279 -0.2448816 0.07019656 -0.008532747 0.14771885 0.12275587 -0.1238974 -0.2531375 0.27870086 0.22101635 -0.027796365 0.08191663 0.20392336 -0.043218657 0.15290588 -0.05417215 0.19199087 -0.006036301 0.088376105 -0.03301288 0.14313595 -0.06919476 0.16815032 0.006365774 -0.1486203 0.19455223 -0.102714606 -0.09778384 -0.106845155 0.08480712 -0.31986576 0.09300416 -0.02621582 -0.09633835 -0.114171855 -0.14953306 -0.093251616 0.10158536 0.21163711 0.3411854 0.29240578 -0.07864687 -0.15261278 0.11087783 -0.029735075 -0.10718825 0.12854128 0.27939314 0.2950827 -0.19167094 0.05676506 0.22314562
between 0.08728678 0.18830284 -0.11036463 0.27845865 -0.1821682 -0.3853337 0.028792925 0.24031773 -0.33923557 -0.13525753 -0.07831866 0.29385826 0.30502364 -0.006713799 -0.342422 -0.1593444 0.03753974 2.1813428e-05 0.00889588 0.07576906 -0.12351879 -0.32048342 -0.012105472 -0.35388547 -0.008973125 -0.1665719 0.02305424 -0.090361364 0.1026895 -0.033752818 -0.06285998 0.30667582 0.30009994 -0.0060395887 -0.024211723 0.1138146 0.21927701 -0.11349976 0.21848081 0.10978766 -0.18985529 0.17655778 0.19423059 0.18247412 -0.002176476 -0.006640232 0.2299588 0.1614648 -0.14804389 -0.051293984 -0.07301202 0.3390245 -0.05358406 0.07879775 0.37811777 0.042525865 -0.01755857 -0.13697085 -0.029449511 -0.16149738 -0.13201538 -0.1310877 -0.033469506 0.29931086 -0.25483304 0.043630566 0.10827661 -0.018764554 -0.03210047 -0.14013588 0.11040246 -0.062968835 0.29168358 0.039770123 0.2581824 -0.42388028 -0.19277285 0.29445186 -0.11730162 0.31664488 0.25167617 0.17982113 0.20161517 0.13921516 0.03498256 0.038435455 -0.24598198 -0.3984874 0.30352563 0.0058233477 0.12452529 0.137275 -0.24379867 0.09269787 0.036063515 0.09671133 0.0054910653 0.34771913 0.060576737 0.11104768 -0.03956322 0.23444618 -0.026866267 -0.20376338 -0.14849967 0.08198087 0.11525299 -0.25843054 -0.11315612 0.07817345 -0.39853516 -0.2303069 0.07416943 -0.0970571 -0.03615759 -0.03690449 0.1879522 0.21560723 0.19833554 -0.05756521 0.09782976 -0.09035962 0.15566438 -0.07931984 0.0073932754 -0.055419903 0.10699725 -0.37004477 -0.045413442 -0.07845497 -0.10512386 0.1194286 -0.06332188 0.18336675 -0.028927213 0.16601181 0.08881809 -0.19949259 -0.20533787 0.05254603 -0.039974846 -0.39371118 -0.16604021 0.06165392 -0.21615632 0.33816043 0.25039598 -0.14027928 -0.25030655 0.1361517 -0.20229751 -0.41677728 -0.0025505226 0.23900566 -0.3596927 -0.18728407 0.37079433 0.24739283 -0.25226322 -0.06059339 -0.08248965 -0.2678115 -0.2647457 0.24427703 -0.30322933 -0.011380592 -0.109535396 0.32977512 0.13883854 0.14021571 -0.13253514 -0.117609225 0.21620652 -0.28462917 0.18454844 -0.07770209 0.25322628 0.24041045 -0.14287424 -0.33983198 -0.12001925 0.071135536 -0.16185978 -0.04302546 0.06503853 -0.16371416 0.37183735 0.005769333 -0.065460235 0.14164332 -0.14294046 -0.18211234 -0.1581144 -0.21330152 -0.15402842 0.13950056 -0.04754165 -0.11353658 -0.05552332 0.08869206 -0.08417557 -0.11550082 0.24606587 0.011358 0.08792705 -0.12950523 0.11204489 -0.070745684 -0.34199113 0.02214856 0.2617421 0.15991502 -0.14511994 -0.03690808 -0.16021504 -0.1119011 0.37689352 0.023950705 -0.09238686 -0.19478995 0.18366726 -0.31637585 0.13559653 0.040744476 0.25468624 0.14893846 -0.08721743 -0.081279166 0.07873602 0.14731738 0.28207737 -0.19012126 -0.054882977 -0.024784613 -0.20693536 0.066352725 0.04654552 -0.33041102 0.18944238 0.0070814732 -0.022225315 -0.08894522 -0.005888301 0.3042157 0.4411655 -0.0052338527 -0.12201936 0.31915057 0.08002808 -0.33335656 -0.13859369 -0.021093769 0.112532765 0.02114227 -0.25869173 -0.22185369 0.017815387 0.15193145 0.11877027 0.21769112 0.35489136 -0.21567135 0.36985928 0.018337935 0.19601677 -0.083990045 0.12082106 -0.084175795 0.19095454 0.023785919 0.13268323 -0.32423094 -0.3234026 0.35985395 -0.036149982 -0.10189693 0.0023792647 -0.010328565 -0.3382112 0.017844867 0.06709645 -0.29921702 0.03296435 -0.03208314 -0.059089795 -0.016277537 0.26950458 0.14579125 0.11274748 -0.024211202 -0.19039588 0.215185 -0.05253593 0.04702822 0.2728312 0.30828255 0.10714216 -0.03237799 0.018526351 0.008522492
computers 0.15207969 0.05164352 -0.013785303 0.09912247 -0.24220465 -0.36082688 0.16171715 0.3821644 -0.32827458 -0.17391998 -0.35104248 0.26814723 0.077195786 -0.20776102 -0.32740113 -0.04736821 0.0871837 0.04316918 0.26526526 0.2644264 -0.19710428 -0.4503408 0.25782943 -0.2613592 -0.23285073 -0.27012512 -0.07259748 -0.030193562 0.1553266 0.18482617 -0.29445985 0.37584427 0.17458853 -0.0541944 0.022063304 0.050785128 0.15261324 -0.29528004 0.18644945 0.18870266 -0.14753376 0.07777648 -0.2504779 -0.23339663 0.095126756 -0.038578574 0.12315559 0.2914297 -0.27363 -0.32730848 -0.3010626 0.45021883 0.20044951 0.08754208 0.17987964 -0.46253407 -0.107292645 0.29351696 -0.014839695 -0.055533495 0.16179718 -0.22458713 0.025902545 -0.09201655 0.15927368 -0.32754 0.10031581 0.29537824 -0.21128918 -0.26448086 -0.23472558 0.120557144 0.42407098 0.012626976 0.3171887 -0.3973482 -0.22071576 0.14363071 -0.33451948 0.22571246 0.0055410014 0.3321074 0.064113155 0.35995704 0.05082919 0.025449436 -0.35338572 -0.251247 0.34639633 0.04998037 0.3212581 0.11549281 -0.100956276 0.37222093 0.18690358 0.20896712 0.1122139 0.43278122 -0.022814883 -0.1829953 0.115932606 0.08821984 -0.00913591 -0.36441538 0.01758852 0.02445786 -0.105997846 -0.32551804 0.23781826 0.2505518 -0.346165 -0.0417035 0.3727732 -0.19598438 0.07424547 0.20198996 -0.113551795 0.30267426 0.17909366 0.251288 -0.15167183 0.10504894 0.24029557 -0.28792197 0.15302928 0.22018047 -0.06685044 -0.012875437 -0.23057336 -0.178091 -0.3010442 0.28964663 0.1655263 -0.094252124 -0.26114434 0.24793358 0.13065262 -0.041532155 -0.12010252 0.0790791 -0.19269137 -0.07735922 -0.2030581 0.08501609 -0.24461661 0.23994133 0.24140516 -0.022065664 -0.26528263 -0.015794799 -0.17276244 -0.36444047 -0.3646252 0.36655423 -0.05856735 -0.42460164 0.21468458 0.07319006 -0.114198245 -0.49785715 -0.51276356 -0.017194543 -0.18141308 0.20747516 -0.22866052 -0.22531871 -0.34163266 0.19482751 0.17580499 0.31173536 -0.17872123 0.12374392 0.116662405 -0.39387846 0.098572776 0.13562576 0.2560022 0.25566268 -0.15032537 -0.2834625 -0.25640136 -0.25188252 0.19540182 -0.19075823 0.12584509 -0.525585 0.34898978 -0.21263723 -0.20748407 -0.05021686 0.044828165 0.124134585 -0.042110845 0.030206777 -0.33875844 0.32619238 0.30371422 -0.3364036 0.16202654 0.26664734 0.16966213 -0.33111316 0.22908041 0.16709821 0.06274872 -0.023827475 0.3239306 0.38662162 -0.40705588 0.0281826 0.26564682 -0.12637575 -0.361515 -0.20185213 -0.3911764 0.05014831 0.38814735 0.24225746 -0.19803405 -0.025394008 0.16906513 -0.13584247 0.18786985 0.46769223 0.23351143 0.21144642 -0.17548248 -0.23630646 0.21745503 -0.32262594 0.27759033 -0.024461452 -0.266291 -0.2785247 -0.11833974 0.26680726 0.14352907 0.105129346 0.30550453 0.19402005 0.17372231 -0.05718275 -0.18860732 0.35031292 0.53931564 -0.0073079453 -0.0953267 0.20014533 -0.14357412 -0.016636442 -0.12138907 0.12738599 0.06363809 -0.02232737 -0.28362638 -0.3217414 0.29828367 0.2604429 -0.13104574 0.38368618 0.40506083 -0.07519144 0.335106 0.18787286 0.35940653 0.118968256 0.17969897 -0.40343994 0.21992408 0.13200866 -0.03402818 -0.00065916893 -0.5135127 0.42718774 -0.098647304 -0.11968481 -0.24346574 0.2961339 -0.3094168 0.20817876 -0.13815343 -0.29212704 -0.079569325 -0.1734249 -0.20018885 0.14534219 0.0848424 0.37908882 0.39939427 -0.27799717 0.11318691 -0.031804077 -0.108630165 0.19836536 0.23500282 0.2060872 0.5308293 -0.2351247 -0.28270686 0.24899378
human 0.1805732 0.13225776 -0.027379394 0.2985266 -0.1544011 -0.36946374 0.41348618 0.21589531 -0.34957087 -0.2197667 0.25553483 0.37051833 0.08014611 0.041410718 -0.2824825 -0.3357904 -0.0841524 0.05916471 0.19178335 0.10913971 -0.15443991 -0.216038 0.47895816 0.13544291 0.21126743 0.12486512 -0.23504098 -0.21339351 0.20699956 -0.10714143 0.08548312 0.37650576 0.39002424 -0.041889522 -0.19947019 0.119303554 0.2612246 -0.07414433 0.32128358 0.2200423 -0.061101437 0.12879002 0.017991934 0.09639451 -0.07514041 -0.16891834 -0.075667694 0.06350205 -0.12866403 -0.18380204 -0.28695497 0.2866986 0.079137444 0.046531476 0.15563421 -0.27313775 -0.21515293 -0.23890477 0.11314251 -0.032724936 -0.25793773 -0.1196068 0.18686323 0.34215546 -0.30612084 0.1977866 -0.008357982 0.057019424 -0.12078741 -0.028891446 -0.0057373936 -0.14449053 0.32721525 0.03410362 0.44395375 -0.2786389 0.044843707 0.12548438 -0.13914993 0.22737585 0.22334936 -0.25528458 0.33743656 0.06791576 0.06765811 -0.017442612 -0.40903005 -0.16582073 0.26137486 0.01152234 0.2332713 0.24263714 0.0061376677 0.2534962 0.37651214 0.36226872 0.056630798 0.13770154 -0.20215455 -0.09907709 -0.058554728 0.21584824 0.06722393 0.07154625 -0.03318343 -0.27216113 0.24535991 -0.28815353 0.053702094 -0.019584507 -0.3387734 0.15754554 -0.07661097 0.033035167 -0.068523765 0.023170054 0.10569386 0.43914568 0.4615804 -0.16738814 -0.08291019 0.3029654 -0.12890178 -0.09410447 0.29350957 -0.1661769 -0.24811083 0.05431204 0.034794252 0.059651975 -0.09491828 0.26708597 0.070980795 0.11953381 -0.078113765 -0.043944728 0.07104105 -0.18588181 -0.3295659 -0.17378952 -0.15004708 -0.04578431 0.02802376 0.25336984 -0.29680237 0.29743093 0.32908636 -0.076865695 -0.20737778 -0.11465068 0.12639593 -0.38183606 -0.061938062 0.05311354 -0.20932278 0.03266266 0.28393006 0.16506247 -0.49912983 0.059944402 0.0021893454 -0.17074928 -0.27312353 0.20951077 -0.20273624 0.13831459 -0.10351995 0.16605303 0.27241987 0.082393646 -0.061667614 0.045978706 0.25749382 -0.23921153 0.20228526 -0.14561981 0.34980467 0.43233204 0.0136998305 -0.2871586 0.05273725 0.36276728 -0.045095038 -0.29902515 0.24124683 -0.05978067 0.2986762 -0.079869784 0.10870244 0.07578354 -0.02734695 -0.22170033 -0.3126489 -0.11775351 0.13412465 0.29943165 0.11254336 -0.090213194 0.12987946 -0.021403622 0.153575 0.020050688 0.20738381 -0.07525489 0.21880066 -0.014613969 -0.049662717 -0.117019966 -0.23532304 -0.17026417 0.362928 -0.0016694983 -0.09382471 0.103581354 0.07709308 -0.18627557 0.15845424 0.12827899 0.028531 0.07525835 0.30123878 -0.13532229 0.11718849 -0.14218844 0.3388329 -0.093077965 -0.070382334 -0.11960298 0.040703125 0.02449155 0.45073447 0.1396773 -0.027253224 0.01940324 -0.15987006 0.008361189 -0.020371614 0.07085374 0.12942877 -0.120446935 0.13465223 -0.08324844 0.084009364 0.39459062 0.33506998 -0.045167442 -0.13193855 0.23690715 0.054201134 -0.17476025 -0.20849025 0.12931085 0.19265807 -0.12577224 -0.3368434 -0.01636986 -0.21252011 0.040186778 0.19580568 0.4023171 0.17764677 -0.30062148 0.34661174 0.17877972 0.36065477 -0.13611355 0.04649907 0.12857401 0.089132935 0.16028348 -0.117840126 -0.11219641 -0.31925485 0.21328337 0.038998187 -0.24947737 -0.06785176 -0.25557226 -0.2643374 0.024965847 0.11134077 -0.30092514 0.15848681 -0.09149356 0.03994555 0.12307845 0.20016885 -0.08714963 0.008061294 -0.03982455 -0.07156285 0.102230415 -0.34122664 0.18653671 -0.0056482954 -0.0052695377 -0.16028422 -0.21490563 -0.2545475 -0.010054066
(natural) 0.15857585 -0.30771178 0.3633886 0.35847548 -0.09716814 -0.33550102 0.43677855 0.24504276 -0.3310953 -0.20967862 -0.24712838 0.32024258 -0.020552306 -0.17542475 -0.13109292 -0.18050915 0.37236315 0.31447235 0.16611244 -0.11217976 0.17718431 -0.21866703 0.27564287 0.31839433 -0.18600363 -0.18449269 -0.14402361 -0.3226837 0.20750862 -0.0805857 -0.19594148 0.34857723 0.2651713 -0.06414441 0.16775288 -0.08294391 0.19991332 -0.120305575 0.16264017 0.40598512 -0.32932734 0.30401868 -0.20707269 0.28010994 -0.2323808 -0.03194287 0.29590195 0.28896293 -0.17867558 -0.0071760034 -0.33057445 0.28980917 0.12458103 0.30454627 0.3058427 -0.08384486 -0.17250124 0.37096012 0.22300133 0.090026535 -0.11911698 0.24577846 -0.17627822 0.22044693 -0.06363988 0.20382228 0.2575637 -0.09333371 -0.14614795 -0.19595674 -0.1883984 -0.032613028 0.17613558 0.16697246 0.28881794 -0.30035442 -0.19202131 -0.035991743 -0.2389874 0.3600214 -0.30080146 0.07154707 -0.10888984 0.24815582 0.034373894 -0.119954996 -0.4045864 -0.32724226 0.19991876 0.25858983 0.35256827 0.11555202 -0.13178809 0.26140973 0.41412047 0.25858513 0.3150927 0.25270313 -0.32234472 -0.32632893 0.18571857 -0.05128598 0.19894007 -0.23515302 -0.04417501 -0.24232234 -0.21945077 -0.26938 0.23771447 0.28177235 -0.21976426 0.37843934 0.13993907 -0.33907098 0.14942428 0.11963006 0.20134811 0.28749582 0.28472912 -0.3496732 -0.291966 0.19539653 0.15007173 -0.24245211 0.24130024 0.25718573 -0.08451385 -0.016789438 -0.08894568 -0.20514107 -0.21995716 0.3009732 0.14391124 -0.17851067 -0.33419412 0.13606493 -0.052949697 0.25082687 -0.2439843 -0.15234634 -0.31721297 -0.21868749 -0.1905314 0.045260835 -0.35963872 0.1926026 0.4234921 -0.23296545 -0.14683945 -0.17595643 -0.11648379 -0.26044807 -0.32238957 0.17163496 -0.11834293 -0.23259878 0.057282005 -0.44323438 -0.0526712 -0.24755828 -0.22467732 -0.07799589 -0.34891903 0.07225831 -0.2230394 -0.11063269 -0.1779172 0.07341759 0.094141446 0.29402056 -0.10832905 0.022239389 0.21150139 -0.20611486 -0.1744016 0.051590674 0.30418542 0.2353939 -0.07383742 -0.24330583 -0.09375882 -0.2532214 0.3227382 -0.31203517 0.2512732 -0.09909047 0.31457773 -0.2884141 -0.37837142 -0.124597244 0.15242717 0.22924076 -0.23101331 -0.16660301 -0.20837869 -0.25486267 0.17021753 -0.2087007 0.33734316 0.12592123 0.18871447 -0.12618047 0.23682752 0.046533205 0.1427897 0.1206655 0.22523871 0.061452862 -0.16153869 -0.15707618 0.1881271 -0.065028876 -0.22876577 -0.04508081 -0.27128735 0.03776891 0.254577 0.30895293 -0.12509377 0.023165824 0.12404405 -0.26406953 0.0518667 0.15695083 0.20447583 0.22771046 -0.18839677 -0.045932088 -0.061029155 -0.26162067 0.23592196 0.13226047 -0.25876185 -0.30752197 0.07993153 -0.00981194 0.03907753 0.20088197 0.22606157 0.033940133 0.23298168 -0.19603051 0.16561633 0.23026529 0.2729285 -0.29942393 -0.06633691 0.05398468 0.058046877 -0.28830415 -0.34606212 0.064029545 0.18832529 -0.05762842 -0.07680643 -0.26387173 0.08765979 0.35779846 0.14451128 0.36642614 0.23366451 -0.1753603 0.25172502 -0.026576852 0.32030886 0.08510879 0.14309402 -0.23327318 0.28245696 0.30488172 -0.13560455 -0.19402717 -0.25489718 0.107921906 0.39857545 -0.3487715 -0.063639775 0.20736852 -0.30178022 0.0067922645 0.1831114 -0.37506425 -0.21797866 -0.080325834 -0.28296292 0.08230263 -0.09868863 0.052785695 0.36013332 -0.03834981 0.1832334 0.1189348 -0.3692738 0.23470542 0.34107035 -0.23762262 0.1311746 -0.04210591 -0.22257392 0.0728264
languages. 0.16996683 -0.1223055 0.18794145 0.33830202 -0.07326899 -0.37362772 0.40867797 0.15346618 -0.36428335 -0.23652089 -0.28693727 0.27536413 0.10562536 -0.11217006 -0.17298442 -0.14510435 0.35972565 0.36272982 0.09780724 0.08524588 0.10541648 -0.14587075 0.27731523 0.06435846 -0.06981997 -0.16063799 -0.026648473 -0.21451172 0.26069131 -0.07618768 -0.254653 0.37552866 0.21537174 -0.08343095 0.19228263 0.028135438 0.1396702 -0.20417364 0.015225408 0.4228168 -0.22681822 0.3723775 -0.080095924 0.26682892 -0.1879918 -0.0815277 0.2994592 0.31974998 -0.23482722 0.09700885 -0.27092314 0.1931625 0.029620305 0.26631218 0.35065794 0.013295083 -0.023642987 0.11986442 0.158612 0.06019637 0.023912756 0.15110013 -0.09462746 0.106891915 -0.21548522 -0.052102454 0.22973552 -0.09880032 -0.10544509 -0.22223102 0.041351594 -0.05311381 0.11745637 0.17645545 0.20203994 -0.319354 -0.27931532 0.059023984 -0.074054055 0.19002475 -0.013876997 0.11768408 -0.1187381 0.27124044 0.063296184 -0.21678773 -0.29740602 -0.36011633 0.17700393 0.32633355 0.2644018 0.14082563 -0.0905919 0.29963782 0.4155499 0.30557853 0.21513218 0.241473 -0.18512347 -0.064069144 0.21873778 0.010267656 0.040184185 -0.27874604 -0.07582883 -0.07925875 -0.15775213 -0.16000417 0.111710235 0.28193414 -0.21654634 0.18563636 0.10398612 -0.29548946 0.047120415 0.017903786 0.1977506 0.15406223 0.19174317 -0.102664545 -0.1617401 0.09769487 0.120534986 -0.22438228 0.03561867 0.2462384 0.047229722 -0.1656447 -0.050160933 -0.2779521 -0.27744448 0.28029966 -0.024321472 0.041349456 -0.26116917 0.15088437 0.06239407 0.026725054 -0.10987953 -0.050190996 -0.28673002 -0.22719625 -0.2953833 -0.008380001 -0.38854766 0.10931376 0.33906582 -0.21766254 -0.17423783 -0.048973545 -0.14904329 -0.24507383 -0.32321233 0.11157434 -0.16020958 -0.26114273 0.17729741 -0.34119186 0.031722706 -0.27658248 -0.25664985 -0.12233466 -0.36165133 0.18035804 -0.23087537 -0.21223128 -0.17417838 -0.02225178 -0.10745996 0.30341706 -0.17277627 -0.015384066 0.06690072 -0.21632329 -0.029863147 0.0022647325 0.29063955 0.054401763 -0.07554116 -0.22030726 0.014220298 -0.29477733 0.09249907 -0.24870825 0.17100276 -0.14078367 0.34879437 -0.100986764 -0.32706794 0.054980427 -0.050847754 0.08939278 -0.18102017 -0.1726947 -0.20138605 -0.15419821 0.08746783 -0.2603191 0.3185695 0.14609455 0.23586035 -0.047697175 0.3078514 -0.0045874077 0.13491361 0.0050293193 0.2697741 0.09249312 -0.12663192 -0.14279683 0.13874799 0.06955328 -0.22349066 -0.01663818 -0.27101573 0.05589789 0.2561396 0.29787895 -0.12141037 -0.10377394 0.058161348 -0.27174208 0.03223597 0.21006303 0.14617653 0.27728012 -0.20336735 -0.057638295 0.06488887 -0.09436017 0.09468531 -0.0994622 -0.20419042 -0.26486197 -0.028812595 -0.06514774 -0.010338845 -0.029898262 0.22282122 0.13996597 0.28720382 -0.12052495 -0.036354817 0.13140178 0.23746471 -0.24977237 -0.060333483 0.020198558 0.030658722 -0.35327017 -0.26999724 0.019670995 0.07332816 0.0052017933 -0.10274473 -0.31929776 0.21263523 0.37849244 0.16155224 0.27205196 0.24797983 -0.12854756 0.22016156 -0.1444831 0.27917656 0.057125237 0.17183739 -0.2401285 0.29691023 0.1346158 -0.065372705 -0.253323 -0.19654079 0.13214941 0.201947 -0.32544076 -0.088896684 0.25434628 -0.32652062 -0.05871178 0.09180527 -0.35956806 -0.21908809 -0.17526601 -0.32919994 0.035478413 0.09131047 0.070027106 0.35280684 0.0015886133 0.03809391 0.21181993 -0.34464878 0.16853154 0.35095438 -0.056355007 0.19203526 -0.116411306 -0.07031821 0.057142194
